76 50
e -0.217152 -0.021274 -0.125903 0.105327 0.047283 0.090058 -0.206725 0.295845 0.093052 0.037271 -0.203626 -0.115396 0.273345 -0.086461 -0.343163 0.318082 -0.146138 0.114408 -0.278846 0.144235 0.172594 -0.236934 -0.038652 -0.415830 -0.002197 -0.103202 -0.390577 0.004047 0.122684 0.024052 0.095890 -0.049614 -0.232227 0.000898 -0.228448 0.011059 0.112354 0.440091 -0.267485 0.138681 0.036795 0.182186 -0.016241 0.114915 0.172470 -0.279702 0.053033 -0.142006 -0.089112 0.310974
a -0.171248 0.115086 -0.200184 0.091764 0.268901 0.008780 -0.074399 0.059798 0.117471 0.165876 -0.236498 -0.018581 0.105657 -0.209068 -0.325891 0.249922 -0.044789 0.155236 0.021330 0.434911 0.574797 -0.086878 0.206148 -0.240212 0.153552 0.127743 -0.125628 -0.003755 -0.017554 0.306422 0.062815 0.096581 -0.192627 -0.070891 -0.227742 -0.036897 -0.098031 0.366273 -0.174558 -0.005719 0.052128 0.086813 -0.006427 0.156753 0.267476 -0.310714 0.170710 -0.225852 0.121122 0.249729
t -0.315167 -0.281788 -0.073889 0.051346 0.189050 0.059122 -0.051149 0.146545 0.114185 -0.042399 -0.028540 0.204507 0.339896 -0.165617 -0.107385 0.252808 0.077817 0.113052 -0.107860 0.372146 0.210405 0.037718 0.181792 -0.403559 -0.099939 0.148279 -0.026042 -0.083194 -0.032772 -0.056414 -0.090798 -0.005265 0.014902 0.207794 -0.053124 0.019940 -0.038494 0.179253 -0.048042 0.150997 0.160528 0.041648 -0.046354 -0.012816 0.373121 -0.233048 0.038395 0.092415 0.025933 0.118218
n -0.656413 -0.158057 0.020409 0.076713 0.211103 -0.074338 0.009448 0.023079 0.083916 0.101427 -0.144077 -0.244428 0.223254 -0.189882 -0.036308 0.309084 0.218918 0.113355 -0.083513 0.269775 0.225079 -0.197619 -0.195148 -0.515711 -0.009236 -0.066848 -0.168724 -0.163656 -0.005859 0.043365 0.150881 -0.050024 -0.114943 0.097311 0.008928 0.029464 0.014221 0.108800 -0.003948 0.238507 0.046507 -0.105013 -0.137625 0.124607 -0.055963 -0.062431 0.116922 -0.187543 -0.238474 0.210203
i -0.308450 -0.143964 -0.089353 -0.389197 -0.029629 -0.030320 -0.375338 0.002679 0.219444 0.240496 -0.161351 0.156543 0.181874 0.001170 -0.415648 0.386352 0.023621 0.160415 -0.237165 0.401399 -0.026031 -0.080990 -0.229562 -0.177800 -0.073579 0.002797 -0.139803 -0.021186 -0.042878 0.030131 -0.178811 0.063547 -0.184426 0.304078 -0.091884 -0.129091 -0.385722 0.502262 0.015894 0.103597 0.058898 -0.005246 -0.217059 0.441857 -0.001009 0.002587 -0.030287 0.118063 -0.412288 0.093382
o -0.544633 -0.002646 -0.280228 0.019373 0.388879 0.144131 -0.135416 -0.266567 -0.013105 -0.335594 -0.232635 -0.024108 0.135003 -0.072169 -0.514088 0.460336 0.070900 0.087888 -0.078974 0.463552 0.154393 -0.304991 -0.066100 -0.235860 0.117339 -0.139983 -0.332045 0.081683 -0.273634 0.210568 -0.071247 0.022429 -0.149062 -0.087549 -0.286328 -0.243656 -0.305853 0.246124 -0.313126 0.297159 -0.074174 0.124047 -0.182683 0.006236 0.333259 -0.215111 0.120457 -0.357799 0.252864 0.252772
r -0.498145 -0.025778 -0.306687 -0.432347 0.068977 -0.180338 0.090131 -0.034719 -0.027854 0.204900 -0.273488 -0.228853 0.468550 0.017134 -0.158728 0.196911 0.016159 0.039481 -0.120653 0.228858 0.087201 -0.205987 0.091414 -0.401600 -0.129972 0.043367 -0.244637 -0.063883 -0.197440 -0.074562 0.046484 -0.099010 -0.375955 -0.124471 -0.023743 -0.063846 -0.166847 0.184724 -0.211250 0.337899 0.210972 -0.009525 0.118935 0.130194 0.193003 -0.217850 0.325649 -0.033814 -0.003909 0.090348
0 -0.406292 0.145449 -0.285199 -0.302863 0.216672 -0.302510 -0.001114 0.241620 0.278452 0.181919 -0.064060 0.160286 0.165862 -0.025907 -0.295913 0.410991 -0.040957 0.067039 -0.073552 0.268325 0.228696 -0.226542 -0.295734 -0.118097 0.014285 -0.171351 -0.418878 0.006132 -0.417455 0.404733 0.363041 -0.079205 -0.168772 0.261862 -0.254140 0.078117 -0.170837 0.276488 -0.459541 0.130308 -0.309519 -0.340412 -0.322627 -0.288594 0.002337 0.019089 0.101660 -0.185732 -0.095085 0.237823
s -0.251809 0.063173 -0.076531 -0.013229 0.233351 0.405849 -0.151921 -0.087876 0.343329 0.065376 -0.146031 0.098812 0.280492 -0.114939 -0.232821 0.002409 0.050373 0.254443 0.037487 -0.041140 0.052362 -0.207750 0.021113 -0.445358 -0.153153 -0.081967 -0.141202 0.086779 -0.037769 -0.016062 -0.094772 -0.086951 -0.167327 -0.067010 -0.079737 0.012899 -0.172840 0.381897 0.096156 0.077761 0.222536 -0.016329 -0.101585 0.026695 0.278046 -0.111712 0.024074 0.270504 -0.191637 0.093512
l -0.239668 -0.106457 -0.305859 0.200563 0.397430 0.004061 -0.019655 -0.027756 0.147060 0.122277 -0.115610 -0.169087 0.081676 0.042441 -0.361967 0.116574 -0.007965 0.005117 -0.139168 0.326852 0.259963 0.138309 -0.008282 -0.276880 0.122083 -0.113523 0.034933 -0.055572 -0.026837 0.283240 0.160694 -0.027682 -0.074603 -0.278476 -0.239585 0.052067 -0.350563 0.339987 -0.163479 0.171935 0.088120 0.071378 -0.183672 0.344516 0.202314 -0.339331 0.106945 -0.211456 0.134204 -0.019611
d -0.436680 -0.058752 -0.240680 -0.143652 0.036331 0.172873 -0.111883 0.024688 0.153431 0.119027 -0.251013 -0.113740 0.347242 -0.076591 -0.216222 0.276111 0.132270 0.036214 -0.245531 0.072692 0.101444 -0.096208 0.272948 -0.416772 -0.236118 -0.102924 -0.116963 0.156485 0.011595 -0.046957 0.191123 0.013811 -0.091751 0.171475 -0.091144 -0.089992 -0.054647 0.101984 -0.250086 0.350826 0.043372 0.062670 0.078183 0.037238 0.086953 0.216161 0.130691 -0.148804 0.042904 0.263403
h -0.510528 -0.153858 -0.225092 -0.050983 0.279537 0.106079 -0.280555 -0.165559 0.052427 0.130607 0.052919 0.108650 0.461906 0.053432 -0.358582 0.314612 0.039116 0.069933 -0.127111 0.219729 0.252987 -0.153348 -0.054200 -0.835672 0.041772 -0.213941 -0.055466 -0.109429 0.043598 0.004424 0.115670 -0.101994 -0.311557 -0.123776 -0.253636 -0.107362 -0.297338 0.382203 -0.251769 0.165607 0.075647 0.176561 0.134756 0.039016 0.165001 -0.334850 0.246381 0.097594 0.070927 -0.002480
c -0.512955 0.166290 -0.150080 -0.295323 0.177470 0.130030 -0.066002 0.095269 -0.001806 0.014832 -0.322211 -0.091853 0.249251 0.082180 -0.658011 0.339463 -0.078838 -0.176855 -0.251352 0.234493 0.108572 -0.314154 0.246604 -0.247907 0.000576 -0.105927 0.092221 -0.066160 -0.072782 -0.094481 -0.013557 -0.161838 -0.292656 0.064861 -0.254797 -0.361334 -0.254479 0.037248 -0.024367 0.195225 -0.111545 0.008474 -0.150673 0.226506 0.293952 -0.007759 -0.084380 0.349177 0.018493 0.463010
u -0.315669 -0.229052 -0.183760 0.227123 0.394833 0.205599 -0.253107 -0.230496 0.110397 -0.085792 -0.170329 -0.024404 0.103758 0.030028 -0.541841 0.276815 -0.252738 -0.134993 -0.535865 0.292526 0.127886 -0.155089 0.047481 -0.195272 0.149997 -0.000450 0.055690 -0.053549 -0.127128 0.118818 -0.154214 0.006454 0.058966 -0.126850 -0.147182 -0.095723 -0.419512 0.284843 -0.114612 0.060293 0.209829 0.082986 0.040890 0.083541 0.218245 -0.269432 -0.159107 0.142293 -0.253278 0.322542
m -0.479145 -0.425912 -0.255137 -0.039463 0.060974 -0.201720 0.134996 -0.222857 0.144065 -0.081859 -0.208476 0.038493 0.384990 0.078155 -0.137309 0.109116 0.104026 0.019911 -0.105802 0.406045 0.185618 0.042509 0.161305 -0.056789 -0.089354 -0.064092 -0.032019 -0.004675 -0.210367 0.385873 0.060851 0.070619 0.153119 -0.119736 -0.090345 -0.040565 -0.280721 0.056342 -0.404285 0.166398 0.140100 -0.238982 -0.120855 -0.119912 0.165912 -0.229346 0.094629 0.035123 0.167981 -0.332102
f -0.293673 -0.075894 -0.039135 0.016967 0.147670 -0.149328 -0.359646 -0.005370 0.109844 0.077657 -0.143662 0.043144 0.319881 0.250791 -0.107785 0.427199 -0.084094 0.125456 -0.334655 0.218211 0.318226 -0.257826 -0.080109 -0.329386 0.008978 -0.125977 -0.153927 0.248582 0.024274 -0.119999 -0.180723 0.004611 -0.378398 -0.055811 -0.385643 0.099729 -0.263277 0.378576 -0.390835 -0.077853 0.426704 0.042875 0.003901 0.158423 0.313180 -0.199516 0.138378 0.045396 -0.060837 0.303636
p -0.318662 -0.361955 -0.053434 -0.006425 0.172287 0.093279 -0.166607 -0.018312 0.003592 -0.099226 -0.343715 0.016447 0.115534 -0.014998 -0.432393 0.161797 -0.030942 -0.093962 -0.132751 0.280855 0.004600 -0.258050 0.107811 -0.213589 0.150474 -0.175600 -0.159528 -0.108047 -0.098701 0.203658 -0.067733 -0.055910 0.084805 0.063850 -0.045135 -0.089202 -0.168847 0.407268 -0.205417 0.038199 0.231273 -0.070900 -0.068711 -0.005555 0.149009 -0.201428 -0.189266 -0.126374 -0.140333 0.312588
g -0.475270 0.064083 -0.030288 -0.010875 -0.063968 -0.130275 -0.296401 -0.123875 -0.246741 0.037873 -0.190019 -0.049731 0.260052 0.198170 -0.201043 0.400997 0.275628 0.186652 -0.347452 0.293853 0.194479 -0.442913 -0.082387 -0.364967 0.217077 -0.309932 -0.114809 0.036165 -0.298595 0.111240 0.060910 -0.324486 -0.258795 -0.222121 -0.115858 -0.183531 -0.356458 0.275322 -0.483279 0.178716 -0.003650 0.030997 -0.173882 0.112270 0.064343 -0.050976 -0.118058 0.106042 0.032153 0.038188
. -0.323332 -0.150198 0.020306 -0.065396 0.177313 0.072165 -0.084043 0.090246 0.577174 0.216774 -0.096336 0.051143 0.095095 -0.226227 -0.282045 0.011333 0.247052 0.280450 -0.235656 -0.274982 -0.185747 -0.175774 0.354180 -0.088038 -0.353388 -0.289724 -0.267574 -0.037316 -0.298743 0.150568 0.094132 -0.665496 -0.087381 0.256511 -0.009272 0.185633 0.126655 0.266032 -0.087254 0.275049 0.238669 -0.251478 0.194052 0.171349 0.279187 -0.418343 -0.098088 0.050262 -0.205002 0.155028
y -0.478405 -0.076185 0.033740 -0.304641 0.329883 -0.099891 -0.147326 0.065537 0.034280 0.031807 -0.233289 -0.266374 -0.030398 -0.171387 -0.224695 0.308493 -0.044329 -0.445388 -0.294017 0.082451 0.290713 -0.295746 -0.102553 -0.337018 -0.146432 -0.196437 -0.259674 0.123436 0.139919 0.052215 0.346681 0.151667 -0.116168 0.036079 -0.284594 -0.218161 -0.275955 0.098660 -0.236719 -0.168018 -0.166345 0.083128 -0.030644 0.203875 0.076920 -0.043509 0.060809 0.152950 -0.039197 0.204033
w -0.257036 -0.180764 -0.073715 0.193859 0.260217 -0.142095 -0.212497 -0.052982 0.004153 0.464771 -0.199997 -0.141287 0.317797 0.286136 -0.261332 0.437537 0.167735 0.108419 -0.256016 0.452959 0.412602 -0.228225 -0.207254 -0.488770 0.032131 -0.090868 -0.012253 0.041501 0.021803 0.061926 0.091767 0.025853 -0.379637 -0.173932 -0.038286 -0.094486 -0.304604 0.235898 -0.519210 0.195186 0.018526 0.093182 0.055855 0.068361 0.395335 -0.281622 0.325481 -0.112195 -0.153201 0.160101
- -0.611580 -0.230288 -0.376537 0.216466 -0.017524 0.122737 -0.281537 0.052292 0.424792 -0.108882 -0.372224 0.260236 -0.192748 0.184637 -0.270877 -0.086347 0.081343 0.257044 -0.064067 0.461967 -0.007003 -0.100837 0.077737 0.082760 0.169843 -0.115206 -0.100813 -0.046236 -0.292221 0.337132 -0.180496 0.172168 0.295852 -0.300124 0.167812 -0.445876 0.092249 0.412884 0.271438 0.122557 0.196814 -0.038891 -0.318207 0.278501 0.137838 0.038670 -0.271644 0.215394 -0.043110 -0.268312
b -0.320227 -0.039722 -0.038109 -0.189316 0.322128 0.011364 -0.165279 0.275358 0.304665 0.275109 -0.516568 0.122946 0.126523 0.399206 -0.207036 0.319297 -0.183939 -0.135629 -0.326270 0.335871 0.296627 -0.052860 0.220379 -0.232326 -0.046020 0.028317 0.147395 0.003397 0.005893 0.096615 -0.147892 -0.047320 -0.112907 -0.115156 -0.286067 -0.091471 -0.003631 0.237736 -0.243063 0.101965 0.219094 0.129111 0.118812 0.195628 0.213346 -0.253819 -0.012432 -0.019096 0.097394 0.246831
, -0.490913 0.022652 -0.240732 -0.099177 0.283684 0.178932 -0.063303 0.234653 0.193291 0.190713 -0.290193 -0.041196 0.301943 -0.111902 -0.420689 0.222036 0.059998 -0.316566 -0.176434 0.331549 0.119462 -0.299973 0.111909 -0.330590 -0.310857 -0.066038 -0.120784 -0.075356 -0.100571 0.153952 -0.120148 -0.131470 -0.207265 -0.301078 -0.199639 -0.174422 -0.239982 0.231020 -0.179919 0.296392 0.213960 0.084440 0.100057 0.214046 0.098787 -0.232158 -0.089722 0.141245 -0.184087 0.459175
S -0.117386 -0.095781 0.157438 0.323824 0.196595 0.325311 0.130033 0.132152 -0.063115 0.022914 -0.217992 -0.048374 0.062678 -0.018580 -0.256340 0.043886 -0.089921 -0.111841 -0.444711 0.254674 -0.058187 -0.009233 -0.191193 0.085177 -0.143900 -0.294245 -0.239552 0.024360 -0.026331 0.162348 0.176670 0.023631 0.022360 -0.413088 0.256520 -0.080654 0.393346 -0.054085 -0.075688 0.440378 0.070516 0.111569 0.064570 0.308276 0.129556 0.002103 -0.281230 -0.005060 0.117149 0.206966
A -0.072516 -0.165515 0.235751 0.226747 0.080954 0.703804 -0.077049 -0.303829 -0.132059 -0.090438 0.051124 -0.072882 0.110443 -0.137953 -0.135999 0.373588 0.512525 0.365694 -0.205485 -0.244131 0.102925 -0.213306 0.293284 0.145017 0.142027 -0.703416 -0.415593 -0.031919 -0.414946 0.387019 0.046529 -0.295333 -0.155335 -0.092735 0.442176 -0.207779 0.596518 0.331105 0.022498 -0.021126 0.182366 0.078546 0.436707 0.605994 0.474025 -0.009326 -0.352337 -0.154648 -0.069000 0.173525
T -0.040789 -0.199211 0.509270 0.269291 -0.129382 0.552103 0.034640 -0.174055 0.020756 -0.244580 -0.380889 0.010213 0.237675 -0.498476 0.149140 -0.208948 0.242310 0.096680 -0.101310 -0.128587 -0.492463 -0.007546 -0.120800 0.041534 -0.288304 -0.429120 -0.383557 0.013406 -0.171634 -0.076136 -0.047208 -0.316308 0.145907 0.024353 0.748028 -0.194797 -0.007176 0.046670 -0.041450 -0.032942 0.051981 -0.031325 0.125658 0.055067 -0.141524 -0.124104 -0.015598 0.532605 -0.227997 0.168490
v -0.404208 0.003494 -0.126206 0.210936 -0.120824 -0.383225 -0.071957 0.186575 -0.006945 0.394682 -0.282208 0.137062 0.164692 -0.104151 -0.058990 -0.078295 -0.139286 0.120637 -0.063731 0.247367 0.171314 -0.059921 -0.194963 -0.148216 0.008865 -0.134084 -0.049556 0.098141 -0.107939 -0.040511 0.041319 0.225150 0.035650 -0.138587 -0.051388 -0.181231 -0.096246 0.400945 -0.102288 0.145029 0.338954 -0.102369 -0.057754 0.163477 0.338220 -0.232159 0.042015 0.123354 -0.004570 0.404770
k -0.198624 -0.273718 -0.109892 -0.551696 0.412662 0.270759 -0.429001 0.217364 0.117904 0.278908 0.069165 0.080830 0.171946 0.430627 -0.491553 0.302079 0.043012 -0.110542 -0.467134 0.070598 0.084313 -0.060739 -0.025758 -0.245454 -0.130830 -0.204903 0.059058 0.157021 -0.133185 0.153083 0.132531 -0.170087 -0.165646 0.195551 -0.165206 -0.200590 -0.131848 0.321378 -0.002398 0.241792 0.060849 -0.044425 0.107154 0.383251 0.054171 0.099053 -0.324242 0.035625 -0.254593 0.022473
C -0.141072 -0.421493 -0.074419 0.166336 0.141746 -0.040624 0.300588 -0.020844 -0.132631 0.024433 -0.313176 -0.173460 -0.052783 0.132942 -0.191603 -0.053234 0.114503 -0.032806 -0.092049 0.374785 0.109535 -0.180157 -0.102754 -0.023031 0.268143 -0.095981 -0.179418 -0.243393 -0.092781 0.231403 -0.105947 0.159410 -0.105004 -0.343246 -0.084132 0.177994 -0.132152 0.202182 0.031429 0.226048 -0.088528 0.264622 -0.007912 0.112441 0.458216 -0.469085 -0.182305 0.061774 0.109940 0.224838
R 0.189803 -0.157657 -0.285321 0.029096 0.042834 0.265289 -0.105339 0.164073 -0.288252 0.009768 0.094540 -0.146690 -0.025296 -0.379878 0.088334 -0.192628 0.237432 0.544927 -0.213939 -0.009136 0.069320 0.048133 0.093895 0.242454 -0.045038 -0.319243 -0.226816 0.096648 -0.298055 0.266773 -0.059519 -0.160864 -0.069144 -0.151845 0.383874 -0.278375 0.176268 0.086232 -0.158841 0.377684 0.399112 -0.072465 0.123494 0.289471 0.356274 -0.172729 -0.005010 0.151164 0.170350 -0.026097
I -0.253635 -0.059766 0.011238 -0.256723 0.722921 0.221967 -0.000269 0.051340 0.368035 0.208964 -0.513225 -0.118637 0.104040 0.097025 -0.185829 0.120403 -0.486529 0.161220 0.103250 -0.049017 -0.130852 -0.008777 -0.007169 -0.261804 -0.176451 0.056882 -0.145924 0.234231 -0.256664 -0.218689 -0.214596 -0.099011 -0.163081 0.008701 -0.052852 0.180977 -0.150342 0.266217 -0.175185 0.422256 0.309340 0.026188 0.048414 0.181559 0.352576 -0.150373 0.179311 0.063949 0.309773 0.499381
O -0.040007 -0.252528 0.375597 0.483713 -0.057355 0.712761 0.162543 -0.183116 0.250885 -0.364748 -0.406885 0.122040 0.092241 -0.224793 0.161797 0.007626 0.384151 0.366529 0.234663 -0.152745 0.211761 0.009039 0.212548 0.073675 0.003609 -0.871993 -0.425285 -0.017172 -0.481183 0.380616 0.076262 -0.289684 -0.043594 -0.132066 0.839347 -0.336766 0.658842 0.289603 -0.246915 -0.026294 0.174056 0.068705 0.156202 0.119964 0.608231 -0.090029 -0.118213 0.165599 0.093935 0.002361
N 0.252603 -0.181868 0.185515 -0.030116 -0.384329 0.468254 0.252732 -0.242693 0.113701 -0.134293 -0.434704 0.116936 0.208664 -0.421149 0.145729 -0.304125 0.445985 -0.028305 -0.023205 -0.399338 -0.009440 -0.241818 0.538574 0.034991 -0.224643 -0.835096 -0.751414 0.177862 -0.349593 0.481893 0.038335 -0.316718 -0.170185 -0.074464 0.501819 -0.228174 0.433496 0.424425 -0.149224 0.064633 0.492929 0.053144 0.539621 0.196018 0.338827 0.010748 -0.092175 0.188591 0.265715 0.346062
E -0.170044 -0.374348 0.093425 -0.049866 0.268528 0.297508 -0.274774 -0.050897 0.182870 -0.346121 -0.247905 0.051459 -0.038834 0.296840 -0.388466 -0.142287 -0.005191 0.028424 -0.289084 0.145976 -0.055531 -0.520139 0.143825 -0.172037 0.152787 -0.086176 -0.146305 0.053271 0.064830 -0.041474 -0.080719 -0.058237 0.083373 -0.127788 -0.107542 0.057760 0.036732 0.259127 -0.020527 0.221843 0.267802 0.138620 0.138423 0.014601 0.523844 -0.419800 0.094874 -0.078789 0.190255 0.204252
M 0.082843 -0.454386 0.189740 -0.489654 0.298729 0.613739 -0.118585 0.150262 0.083414 -0.024250 -0.025722 0.188779 0.203780 -0.303031 -0.005570 -0.210998 -0.026645 0.206596 0.036071 -0.268570 0.017567 0.088893 -0.003904 0.097265 -0.323471 -0.611006 -0.476528 0.111727 -0.169142 0.399503 0.090076 -0.395229 -0.182130 0.080193 0.569669 -0.207289 0.422260 0.342567 -0.397037 0.103466 0.397697 -0.054876 0.114353 0.034695 0.082935 0.039499 -0.366020 0.439378 -0.205751 0.246567
D 0.155731 -0.119600 0.120458 0.046146 0.172346 0.634338 -0.102904 -0.021720 -0.287904 -0.055111 -0.169861 -0.039001 0.145007 -0.264944 -0.183586 0.190004 0.241723 0.147964 -0.402197 -0.351886 0.332626 -0.270208 0.067652 -0.119792 -0.176311 -0.204275 -0.477602 0.052223 -0.101398 -0.096877 0.262864 -0.265694 -0.084121 0.000461 0.307537 -0.260427 0.341994 0.077577 -0.058418 -0.005128 -0.151001 0.241166 0.303111 0.050055 0.243390 -0.042864 -0.189843 0.413204 -0.085792 0.102359
B -0.222753 -0.131446 0.366057 -0.333008 0.043236 0.287675 -0.228605 0.158163 0.143983 -0.014068 0.164772 0.357603 0.100352 -0.255473 0.032987 0.156560 0.293594 0.093590 -0.381854 -0.230316 0.126862 -0.186369 0.028250 0.026269 -0.155757 -0.440711 -0.333294 0.141847 -0.212401 0.288007 0.080112 -0.014318 -0.073976 0.207411 0.276740 0.004128 0.417438 -0.196815 -0.343378 -0.105296 0.309917 -0.260538 -0.065833 0.128781 -0.159117 0.161231 -0.038997 0.445089 -0.309429 -0.264865
L 0.022983 -0.179539 0.207043 -0.355438 -0.181956 0.679888 0.179426 0.065317 0.218155 -0.061526 -0.297744 0.352939 0.036342 -0.289097 0.025144 -0.309860 0.583915 -0.165232 -0.130741 -0.058370 -0.027148 0.069973 -0.055195 0.190886 -0.110309 -0.732977 -0.715270 0.250694 -0.295482 0.098531 0.080870 -0.192451 -0.234371 0.139383 0.557107 0.081658 0.352148 0.005105 -0.297813 0.123837 0.413588 0.251556 0.160547 0.225215 0.011265 0.159675 0.056821 0.197705 0.026283 0.030453
) -0.306611 -0.082456 -0.019739 0.111025 0.239843 0.106008 -0.458200 -0.255852 -0.042374 0.366304 -0.051244 0.365262 0.394575 0.199421 -0.631140 0.087503 -0.173179 -0.024088 -0.092979 0.665010 0.085372 0.239399 -0.611938 -0.134978 -0.152951 -0.233325 0.263837 0.109128 -0.299937 0.380011 0.234041 -0.011520 0.261458 -0.173932 -0.034061 -0.205890 -0.233760 0.422160 -0.168622 0.034710 0.171845 -0.207255 0.315460 0.254380 0.121025 0.051904 -0.256407 0.461923 -0.379174 0.208319
( 0.034901 -0.041806 0.230867 -0.025647 -0.348381 0.165178 -0.161098 -0.110134 0.550526 0.336374 -0.071573 -0.065399 0.246166 0.107413 -0.180120 -0.028254 -0.116700 -0.098466 0.039751 0.209238 -0.035291 -0.510898 -0.089434 -0.063086 0.238612 0.090585 -0.022330 -0.040671 -0.057011 0.112671 -0.128973 -0.320050 -0.468138 -0.090153 0.149434 -0.016637 -0.145688 0.365726 -0.237173 0.280560 0.100971 0.007045 -0.032128 0.461938 -0.045340 -0.196092 0.056995 -0.062451 -0.293488 0.005841
P 0.003829 -0.417883 0.295471 0.188382 0.192140 0.157140 -0.017765 -0.005379 0.004540 -0.254535 -0.087881 -0.063351 0.430973 0.112998 -0.177441 0.358233 0.082197 0.115540 -0.335367 0.004695 -0.070673 -0.416652 -0.097706 -0.244567 -0.014014 -0.306954 -0.365814 -0.127432 -0.204562 -0.123679 0.006762 -0.149017 -0.445020 -0.191251 -0.048476 0.050469 0.052440 0.553659 -0.201435 0.280426 -0.219830 0.251738 0.230381 0.027294 0.040935 -0.068620 -0.277369 -0.086770 0.003611 0.413382
G 0.037194 -0.302109 0.155832 -0.424473 -0.078018 0.402507 -0.174911 -0.116065 0.060596 -0.101572 -0.164312 0.031242 0.124083 -0.042230 -0.306570 -0.215006 0.374283 -0.116856 -0.279392 0.071987 0.160072 -0.122697 -0.068728 0.042899 -0.087045 -0.655474 -0.355130 0.169835 -0.231501 0.144622 0.264916 0.196815 -0.213349 0.184334 0.348422 -0.095278 0.016900 0.342007 -0.144559 -0.116807 0.196884 0.201731 0.434697 0.301107 0.071012 0.003527 0.169229 -0.103074 -0.307592 0.101581
" 0.019354 -0.313690 -0.177022 -0.039388 0.480461 0.001515 -0.104150 0.237264 -0.322694 0.361631 -0.286419 0.015559 0.206149 0.051634 -0.143964 0.121538 0.222767 -0.008825 -0.503342 0.271427 -0.001201 -0.285708 0.000396 -0.408623 -0.135890 -0.105783 -0.205684 0.189010 0.245920 0.021778 -0.021249 0.226687 -0.155224 -0.433592 -0.415584 -0.026749 0.043907 0.444590 -0.338253 -0.031971 0.216730 -0.001650 0.147882 -0.231641 0.111696 -0.124010 -0.063441 -0.011780 0.163958 0.339511
F 0.110550 -0.054953 0.058822 0.281196 0.297062 0.594375 0.113609 0.152905 0.306879 -0.029414 -0.119872 -0.012904 0.156788 -0.171273 0.029857 0.109475 0.320225 -0.002850 -0.090324 0.072481 -0.035759 0.023370 -0.108685 -0.099575 -0.345944 -0.645456 -0.603619 0.264905 -0.290983 0.254232 0.076762 -0.176968 0.019215 -0.255844 0.117827 0.070860 0.161584 0.241633 0.043280 0.269981 0.197840 0.127579 0.133274 0.172449 0.189995 -0.216946 0.122300 -0.044040 0.094625 0.083181
H 0.108255 -0.195105 0.092822 0.119186 -0.143163 0.759756 0.032449 -0.000401 0.153618 0.159823 -0.320830 0.325706 0.143112 -0.306231 -0.011131 -0.038528 0.564374 -0.010471 -0.276477 -0.224296 0.133811 0.025180 0.193239 -0.012340 -0.112546 -0.556663 -0.534289 0.187637 -0.331535 0.327107 0.082031 -0.323235 -0.025036 -0.034460 0.519505 -0.067507 0.493113 0.121047 -0.464289 0.151423 0.320189 -0.053717 0.218167 0.421578 0.278301 -0.017712 0.149631 0.329237 0.141211 0.112184
W -0.085851 -0.258580 0.141426 0.086250 -0.031089 -0.072810 -0.008894 0.266826 -0.125159 0.314767 0.031879 -0.175844 0.015873 -0.129272 -0.062645 0.044513 0.268786 -0.077712 -0.285116 0.013240 0.052283 -0.019863 0.124841 -0.204757 0.122781 -0.617677 -0.014624 0.069416 -0.147020 0.266033 0.417217 -0.281111 0.005206 0.105299 -0.183775 -0.167107 0.184368 -0.048082 0.024539 0.212077 0.197916 -0.146719 -0.115281 0.141232 -0.146843 0.084223 -0.313556 -0.165182 -0.185126 -0.236875
' -0.419293 -0.316679 -0.090573 0.098363 0.101987 0.097019 -0.013131 0.115746 0.353015 -0.024116 -0.180508 0.195778 0.427702 0.296874 -0.027303 -0.220720 -0.158463 0.099901 -0.107811 -0.038725 -0.045238 0.023459 0.030060 -0.216093 0.051645 -0.271629 0.211267 0.131141 -0.403297 0.190676 -0.190582 0.213606 -0.030780 -0.046363 0.049550 -0.074127 0.068409 0.029713 0.050422 0.390525 0.330165 -0.136591 0.101341 0.032429 0.191024 -0.034105 -0.079862 0.197932 0.066993 0.289302
U -0.240882 0.009990 0.047157 -0.270281 -0.164101 0.521617 -0.006319 -0.007504 -0.003942 0.096329 -0.179433 0.057697 -0.133632 0.104005 0.223861 -0.150280 0.079203 0.237948 0.086587 -0.467094 0.003146 0.101586 0.036861 0.226630 -0.223614 -0.775287 -0.323492 0.075746 -0.409323 0.435097 -0.187305 -0.051721 -0.334790 0.162659 0.267459 -0.339406 0.261485 0.206011 0.107399 -0.096586 0.373215 0.045398 0.204465 -0.016629 0.123190 0.060998 -0.266815 0.023824 0.224075 0.401000
x 0.066273 0.171025 0.027846 -0.262520 0.135023 0.124517 0.189885 0.163636 0.060954 0.180539 -0.165954 -0.030922 0.151484 -0.073254 -0.165105 0.055795 0.327246 -0.294691 -0.077184 0.055043 0.107292 -0.282506 0.100083 -0.343085 0.041292 -0.267716 -0.225137 0.030312 0.060304 0.105615 -0.154263 -0.081125 -0.327093 -0.158897 0.093238 -0.068114 -0.375730 0.340677 -0.149860 0.145267 0.105788 0.344550 0.055458 0.083127 0.257310 -0.280673 0.051718 0.411243 0.047650 0.453075
K 0.093682 -0.515854 0.278791 0.246839 -0.336107 0.190649 0.087630 0.222304 0.385182 0.609630 0.009128 0.206864 0.175295 -0.679396 0.413254 -0.312053 0.473128 0.399663 -0.239962 -0.209585 -0.069977 -0.001976 0.206122 0.577194 -0.311731 -0.703560 -0.680206 -0.027045 -0.847556 0.736939 -0.049434 -0.416594 0.255774 0.151114 0.468262 0.056957 0.552649 0.246117 -0.254987 -0.209908 0.463669 -0.630968 -0.267601 0.069642 0.086009 0.072815 -0.335533 0.219955 -0.308678 0.143731
J -0.414938 -0.243072 0.050454 0.506844 0.009560 -0.044775 -0.251340 0.226106 0.233784 0.488536 0.225835 0.062279 0.312716 0.094105 -0.064336 -0.048068 0.369913 0.251304 -0.444717 0.217063 0.045243 0.189054 -0.101377 0.347663 -0.010716 -0.297037 0.011330 -0.233903 -0.523541 0.191016 -0.019708 -0.050450 0.086123 -0.090539 0.284855 -0.145651 0.077906 0.191703 0.025775 0.221778 0.216520 0.332606 0.017193 0.348406 -0.068300 -0.022351 -0.236171 0.206894 -0.248580 -0.065962
j -0.365492 0.017540 0.002914 -0.129291 0.351270 0.242513 0.025658 0.154469 0.249713 0.127614 -0.170072 -0.085996 0.162121 0.213036 -0.127360 0.343073 0.124259 -0.063248 -0.079356 -0.018163 -0.278888 -0.251581 0.235704 -0.257612 -0.095978 -0.217988 -0.149235 -0.029698 -0.022353 -0.000703 0.051778 -0.345526 -0.226246 -0.177740 -0.071464 -0.082435 -0.100466 0.317743 -0.288541 0.160335 0.198855 -0.060430 0.084509 -0.028985 0.220800 -0.287433 0.186688 0.040528 -0.087977 0.032712
: -0.462297 -0.391036 0.395850 -0.025998 -0.280284 0.027026 -0.192284 0.058198 0.171089 -0.143434 -0.203050 0.226626 0.060783 0.157555 0.056146 0.308272 0.436085 -0.310717 0.200867 0.556977 0.075907 -0.326533 -0.023164 -0.246403 0.076540 0.103602 0.164202 -0.263062 -0.060981 0.090300 -0.279704 -0.367148 -0.345110 0.295837 0.011779 -0.228886 -0.509959 0.304185 -0.223666 -0.076793 -0.124469 0.169577 -0.366932 -0.013841 0.165118 -0.045677 -0.287056 0.189064 -0.509247 0.103201
z -0.233775 -0.325728 0.155297 -0.629703 0.387378 -0.071473 -0.088256 -0.013719 -0.072127 0.172270 -0.489815 0.206133 0.066218 0.213733 -0.060869 0.261898 0.204552 -0.372670 -0.216998 -0.180750 0.200515 -0.109474 0.357356 -0.043293 0.044273 -0.128574 -0.178075 0.332658 -0.377297 0.052375 -0.082325 -0.102252 0.010782 0.215974 -0.484125 -0.112720 -0.312145 0.254039 -0.044681 -0.040209 0.341114 0.047348 -0.168453 0.164709 0.120289 -0.091838 -0.051174 0.266185 -0.250238 -0.036121
Y 0.119703 -0.056064 0.393499 -0.035180 0.242085 0.446082 0.220114 0.434969 0.520573 0.085155 0.044871 0.138781 0.010033 -0.073512 0.462761 0.038113 0.158161 -0.016645 -0.238734 0.089524 -0.204707 0.087218 0.196604 0.050189 -0.037424 -0.586769 -0.452192 0.135053 -0.357721 0.334132 -0.073927 -0.437380 -0.121233 -0.143993 0.441687 -0.090559 0.487646 0.205199 -0.258439 0.166754 0.313135 0.075727 -0.030485 -0.037037 0.477603 -0.192619 -0.131931 0.269982 0.036229 -0.152396
q -0.118937 -0.220781 0.196668 0.283239 -0.122929 0.000159 -0.045120 0.340109 0.236099 -0.000290 -0.029353 0.370867 0.253681 0.051241 0.053269 0.011916 0.341832 0.143465 -0.721004 0.736273 0.415136 0.175356 -0.284147 0.010231 0.121129 0.157255 -0.102129 -0.012117 0.028421 -0.139462 -0.003781 0.139920 -0.120930 -0.173335 -0.018169 0.452411 0.083748 0.040627 -0.084918 0.099233 0.186644 -0.186076 -0.746060 0.263783 0.382891 -0.186486 -0.054932 0.080625 0.013811 0.059799
V -0.111923 -0.062065 -0.220932 0.071612 -0.013621 0.415376 -0.026777 -0.145055 -0.108234 -0.031065 -0.152907 0.182466 0.280454 -0.235832 -0.124985 -0.300687 0.011098 0.038874 -0.242249 -0.079955 -0.172332 0.012665 0.001103 -0.217911 -0.073616 -0.183974 -0.722564 0.150323 -0.077323 0.263351 0.039420 -0.142354 -0.044298 -0.355110 0.303143 0.213188 0.241815 0.002070 -0.185834 0.532122 0.250478 0.403360 0.101051 0.212074 0.014563 -0.171244 -0.044183 0.350537 -0.017988 0.258125
/ -0.326807 -0.094351 0.615693 -0.031682 -0.348553 0.357484 0.321963 -0.578681 -0.187552 -0.111561 -0.039407 0.437307 0.353636 -0.757053 0.493325 0.057884 0.758800 0.353632 0.239642 0.268814 0.736573 0.097721 0.333079 0.640685 -0.270389 -0.629799 -0.646032 -0.051867 -0.870307 1.017473 0.115472 -0.253791 -0.190641 0.191227 0.321823 -0.043285 0.851608 -0.075296 -0.297710 -0.536288 0.459262 -0.193324 -0.224558 0.354283 0.370075 -0.072620 -0.366860 0.299934 -0.329440 -0.146682
$ 0.070752 -0.331389 -0.104242 -0.160263 -0.126024 0.227527 -0.108095 -0.345006 0.050403 0.165445 -0.015967 -0.299197 0.529024 -0.159751 0.155466 0.098287 0.103229 0.315848 0.183510 0.309290 0.284229 -0.243078 -0.135230 -0.255403 -0.270303 0.058253 -0.160563 -0.094585 -0.351885 0.414859 -0.065672 -0.179772 -0.081892 0.272835 0.039275 -0.243705 -0.202391 0.089850 0.161283 -0.375688 -0.400174 -0.384658 -0.126156 -0.264015 0.066018 0.143075 0.251326 0.132917 -0.205531 0.442664
Z -0.165611 -0.367380 0.238261 -0.155229 0.253753 0.113275 -0.009376 0.026416 0.339615 0.103374 0.116951 0.054104 0.191116 -0.105542 -0.272232 0.558547 -0.166861 -0.239011 0.318093 0.100141 0.513210 0.107090 -0.121386 -0.412839 0.117250 -0.345248 0.102700 -0.009289 0.012282 0.240565 0.307668 -0.149608 -0.065936 0.281813 0.280633 0.253254 0.255822 0.378800 -0.427739 0.256918 0.277265 0.254450 0.042293 0.489433 0.048784 0.476267 -0.270787 0.296609 -0.232687 0.213008
+ 0.019073 0.851698 0.394132 -0.586824 0.415578 0.389656 -0.295844 -0.211857 0.123491 -0.129640 0.188792 -0.736475 -0.277472 -0.435007 -0.053301 -0.077765 -0.295669 0.661147 0.449015 0.515526 0.434577 -0.083792 0.488361 0.372771 -0.223517 -0.617470 -0.226953 0.557542 -0.297302 0.416812 -0.080114 -0.615102 -0.268837 -0.412873 0.247799 -0.290029 -0.156325 -0.301456 -0.197216 -0.912692 0.408354 -0.424292 -0.003757 0.616064 -0.076912 0.387420 0.523981 0.599031 -0.174057 -0.155894
X 0.385525 0.325770 0.301805 -0.434618 -0.180409 0.512533 -0.047026 0.349107 0.274147 0.185984 -0.594139 0.111015 0.063265 -0.326289 -0.056968 0.207300 0.556113 0.216445 -0.296423 -0.199573 -0.158525 0.229904 0.506402 0.057508 -0.293127 -0.749447 -0.525530 0.204803 -0.404872 0.340039 -0.012600 -0.965842 0.156885 0.393135 0.489684 -0.107939 0.542471 0.270621 -0.034081 0.225373 0.501601 0.285228 -0.117411 0.084047 0.405509 -0.029251 -0.201525 0.418197 -0.469243 0.199302
Q -0.017309 -0.338326 0.661204 -0.618268 0.001633 0.754613 0.524256 0.454419 0.499207 -0.274840 -0.088254 -0.236955 0.268130 -0.462055 0.051022 -0.467986 0.063475 0.214828 0.073768 -0.222684 0.068002 -0.304564 0.197259 0.282192 -0.287101 -0.670101 -0.547027 0.503365 -0.402222 0.678463 0.137545 -0.301053 -0.423400 0.766380 0.361594 -0.049613 0.167103 -0.045979 -0.150342 0.164637 0.290895 -0.046218 0.332102 -0.378137 -0.057847 0.282722 -0.112997 0.584686 0.169241 0.133089
; -0.298631 -0.344580 0.359134 -0.149411 -0.206958 -0.078186 -0.352810 -0.027354 0.537298 0.284881 -0.426159 0.326549 -0.141562 0.348320 -0.006653 0.100137 0.672230 -0.086620 -0.228512 0.465875 0.338041 -0.117288 -0.033544 0.686615 -0.198357 -0.272741 0.184269 -0.169473 -0.851411 0.662474 -0.223290 -0.467609 0.406289 -0.095489 0.274265 -0.232182 0.082402 -0.042617 -0.026872 -0.143236 0.392248 -0.222103 -0.245242 0.424036 0.123488 0.000040 -0.139406 0.292773 -0.443601 -0.435507
* 0.025248 0.201100 0.236431 -0.477777 -0.252242 -0.172985 -0.163472 -0.028059 0.514917 0.123049 -0.008549 -0.287902 -0.350964 0.262270 -0.496296 0.473159 -0.353873 0.361799 -0.083099 0.287096 0.346774 -0.038834 0.421634 -0.085348 -0.487511 -0.038959 0.078068 0.305447 -0.312378 0.653472 -0.072275 -0.598118 -0.404038 0.344571 -0.009389 0.016208 -0.247426 0.039431 -0.314355 -0.362453 -0.210169 -0.505825 -0.128785 0.179131 0.293262 0.518223 0.117217 0.139779 -0.060564 0.161939
& 0.042528 0.036031 0.362167 -0.482469 -0.394531 0.069090 0.139787 0.108819 0.215559 0.518606 -0.210903 0.472175 0.491079 0.102120 0.126313 0.123171 -0.089993 0.348488 0.302230 -0.092219 0.025022 0.349165 0.084483 0.253550 -0.423835 -0.395567 -0.092163 0.271652 -0.179086 0.899876 0.006630 -0.395608 -0.290197 0.311658 0.268474 -0.170526 0.280609 -0.168820 -0.343402 0.470541 0.282477 -0.228828 -0.028855 0.262620 0.218810 -0.093752 -0.096152 0.556000 -0.160621 -0.254695
= -0.148677 0.214967 0.604002 -0.462488 -0.481570 0.729098 -0.384258 0.130056 0.633986 0.494792 -0.384102 -0.379725 0.008752 0.343531 -0.124310 0.524052 0.413281 0.227096 -0.043782 0.522958 0.652634 0.224559 -0.118337 0.096452 -0.293299 0.182968 0.384247 0.025774 -0.215137 0.285683 -0.335513 -0.588915 0.569163 0.125001 0.429149 -0.352294 0.070374 0.207396 -0.381597 -0.075786 -0.224539 -0.389347 -0.193131 0.298487 -0.357952 0.233395 0.052038 0.389949 -0.083127 0.186193
% -0.486497 0.236036 0.375078 -0.874368 -0.196937 0.514620 -0.204399 -0.315009 0.091501 0.174902 0.222432 -0.763651 -0.139372 0.840014 -0.626007 0.283769 0.332245 0.475414 -0.295880 0.347348 0.439817 0.271562 -0.525606 0.178390 -1.033313 -0.435620 0.102897 0.296767 -0.267363 0.790799 0.080628 -0.323086 -0.345837 0.574341 -0.295383 -0.191969 -0.117135 -0.074579 0.158867 0.029781 -0.135249 -0.780897 0.613361 0.311128 0.256898 -0.241548 0.099755 -0.080983 0.241383 0.035355
? -0.124523 -0.216385 -0.176334 -0.338898 -0.122539 0.064851 -0.100905 0.195891 0.483045 0.083364 -0.305908 -0.278867 0.205382 0.227766 0.107914 0.246059 0.267791 0.044581 -0.175090 0.354111 0.186132 0.042575 0.028485 -0.282791 -0.006229 0.112832 -0.082494 0.226665 -0.112447 0.185478 -0.227771 0.126737 -0.099093 0.262077 -0.272259 0.000436 0.134037 0.114397 -0.140147 0.003882 0.304321 0.255623 -0.279526 0.404955 0.146112 0.164365 0.326014 0.193068 -0.383797 -0.215090
[ 0.102161 0.106021 0.473893 -0.080365 -0.409499 -0.197728 0.080655 0.270533 0.278607 0.303515 -0.261629 0.145014 -0.177053 0.445059 -0.425780 0.136446 0.023894 -0.120065 -0.346722 -0.053331 -0.200227 0.096527 0.137089 0.380536 -0.221364 -0.321261 0.012565 0.029480 -0.317354 0.245806 -0.047704 -0.711770 -0.111802 0.067329 0.199324 0.095644 0.328420 -0.028757 -0.215041 0.446157 0.078082 0.095435 0.606256 0.118313 -0.229943 0.202388 -0.293452 -0.050954 -0.140434 -0.022283
] -0.229649 0.191944 0.481349 -0.271931 -0.440672 -0.204533 0.088967 0.366183 0.456974 0.480700 -0.295386 0.028386 -0.071958 0.448700 -0.396234 0.213824 -0.142320 -0.015573 -0.421034 0.213795 -0.159868 0.012198 0.168472 0.288093 -0.517386 -0.424382 0.200920 0.075005 -0.338690 0.258493 0.039132 -0.760202 -0.014610 -0.008482 0.026086 0.097385 0.287296 -0.120104 -0.318634 0.506382 -0.064824 -0.132791 0.420025 0.240100 -0.124435 0.015574 -0.270256 0.103521 -0.082126 -0.036240
@ -0.018514 0.125508 0.071962 -0.375785 -0.373043 0.101862 -0.120701 -0.198437 0.391663 0.178323 -0.154900 -0.282783 0.048912 0.302398 -0.114273 0.235649 -0.055095 -0.037277 -0.067041 0.026046 0.004735 -0.090026 0.108310 0.066028 -0.300893 -0.043333 0.118583 -0.021182 -0.122385 0.085897 -0.068554 -0.439208 -0.132870 0.087179 -0.021402 -0.146178 0.143785 -0.115287 -0.231812 0.103443 -0.170568 -0.102988 -0.013548 0.439246 -0.195184 0.157049 0.095197 0.254632 -0.159738 -0.214882
! 0.059545 -0.079373 0.197172 0.043829 0.008979 0.041389 0.041148 0.250603 0.434207 0.182838 -0.515031 0.112610 0.045134 0.314401 -0.032040 0.183138 -0.159720 0.021309 -0.407310 -0.034656 0.061483 -0.164667 0.394128 0.014739 0.091580 -0.370521 -0.082798 0.122891 -0.222136 0.147130 -0.036373 -0.417359 -0.099687 0.096279 0.051046 0.049092 0.290347 0.148624 -0.172642 0.236090 0.318024 0.167670 0.325311 0.125188 -0.134405 0.047085 -0.148321 -0.013441 -0.072776 -0.257036
` -0.246227 0.331168 0.392091 -0.411323 -0.127805 -0.487231 0.264371 0.308582 0.478984 0.133886 -0.105272 0.033360 -0.059414 0.331694 -0.388524 0.245199 -0.308885 -0.032854 -0.090584 -0.031999 0.119742 0.107558 -0.122072 0.197704 -0.135205 -0.144471 0.052348 0.054342 -0.342446 0.186254 0.049202 -0.526946 -0.162381 0.226730 0.031250 0.240203 0.100868 -0.055090 -0.055045 0.491281 0.097999 0.030574 0.442469 0.032645 -0.127045 -0.084419 0.004146 0.274871 0.131674 -0.071023
# -0.043300 -0.122569 0.055898 -0.039184 0.117007 0.202022 -0.091174 0.130054 0.231103 0.091143 -0.125643 -0.023096 0.028848 -0.004342 0.090175 0.109655 0.058364 0.129041 -0.083628 -0.020759 0.084335 0.002547 0.145892 -0.072047 -0.090453 -0.284127 -0.233272 0.160654 -0.191952 0.134837 -0.028763 -0.191085 -0.010345 0.127601 0.131981 -0.052160 0.072153 0.156323 -0.130763 -0.030866 0.237903 -0.034434 -0.039493 0.143558 0.090313 -0.042811 0.036964 0.046840 -0.116640 -0.010109
