76 100
e -0.185800 -0.000498 0.204470 -0.102082 0.070752 0.275269 -0.366093 0.000497 0.117895 -0.048652 -0.149824 -0.085659 -0.188562 0.090614 -0.172418 0.107451 0.037380 -0.090618 -0.133438 -0.153515 -0.121301 0.046191 -0.151280 0.225735 0.281523 -0.059427 -0.335578 0.046390 -0.206858 0.093800 0.051945 0.199421 0.008333 -0.034667 0.060574 0.127461 -0.061396 -0.033767 -0.096636 -0.135676 0.174243 0.142235 0.092835 -0.029696 -0.028385 0.032942 0.133777 -0.003208 -0.026366 -0.198237 0.084766 -0.006288 -0.165138 -0.031906 -0.044815 0.049835 0.059355 -0.003836 0.120735 -0.146640 -0.077202 0.103916 -0.091498 -0.024364 0.155463 0.102875 0.188697 -0.004772 0.230941 0.206030 0.069433 0.089343 0.036149 0.020241 0.247296 -0.131120 0.126930 0.136430 0.140804 -0.098532 -0.034163 0.043612 -0.025969 -0.046342 -0.111483 -0.024372 -0.021873 0.195175 -0.047798 -0.116782 -0.015675 -0.066192 -0.209700 0.169940 -0.184317 -0.051875 -0.001730 0.012306 0.017218 0.051375
a -0.000580 -0.046239 -0.175412 0.062534 -0.081537 -0.135392 -0.190692 -0.009107 -0.042667 -0.181058 -0.139604 -0.128476 -0.038298 0.059781 -0.180032 0.088306 -0.091939 -0.082447 -0.208823 0.023151 0.031311 0.006137 0.062075 0.014543 0.159436 0.045970 -0.314736 -0.120911 -0.223447 0.077168 -0.028180 0.192810 -0.014873 -0.000804 0.084377 0.167479 -0.028160 0.120687 -0.266992 -0.254266 0.164217 0.152109 0.123851 0.087699 0.004422 -0.020215 0.192724 0.079420 -0.009466 -0.045967 0.134970 0.051374 -0.039069 0.003489 0.002631 0.160059 0.111077 0.029920 0.057548 -0.140891 -0.050558 0.181136 -0.073454 -0.046304 -0.018429 0.008441 0.188251 -0.045863 0.187119 0.008973 -0.071470 -0.002977 -0.048407 0.017104 0.179368 0.017176 0.085444 0.130793 0.192239 0.083805 -0.074231 0.148751 -0.167363 0.060445 -0.154355 0.077503 -0.031081 0.169366 -0.066586 0.147948 0.085450 -0.034174 -0.071009 0.252305 -0.068264 0.062573 -0.094417 0.160645 -0.012243 0.054742
t -0.324912 -0.073078 0.285758 0.268020 0.085418 0.150636 -0.043678 0.084736 0.035851 -0.131350 -0.045533 -0.147647 0.134303 -0.182862 -0.242976 0.171625 -0.062024 0.021377 -0.003020 -0.105541 -0.096604 0.168960 -0.201474 0.294405 0.277989 -0.101960 -0.360164 -0.039400 -0.166400 0.085523 -0.012917 0.056410 0.107349 -0.140745 0.022332 0.167495 -0.017906 -0.190595 0.087175 -0.036782 0.058283 0.218948 0.192160 -0.023859 -0.053133 0.084543 0.231279 -0.159201 -0.038138 -0.173260 0.144540 -0.060452 0.034811 0.147630 -0.013070 -0.128276 0.054321 -0.032138 0.113830 -0.058286 -0.228173 -0.040594 0.082353 -0.047418 0.156539 0.207230 0.257863 -0.030380 0.188297 0.117077 0.201347 0.000545 0.075537 0.029575 0.099886 -0.111754 0.144340 0.238428 -0.011393 0.049044 -0.034017 0.135823 0.123582 0.018434 0.090043 0.001737 -0.011658 0.230561 0.053644 -0.136147 0.062594 -0.004492 -0.117015 0.219004 -0.079078 0.082422 0.008416 0.151096 -0.018840 0.002835
n -0.202454 0.046096 0.123671 0.074756 0.064432 0.380153 -0.107509 -0.111438 0.175332 -0.024766 -0.013751 -0.026385 0.105544 -0.034031 -0.147758 0.085918 0.050685 0.099755 0.230592 0.153838 0.130136 0.176020 -0.089741 0.029180 0.058630 0.247698 -0.238198 -0.059008 -0.068774 -0.030147 -0.087160 0.008176 0.051476 -0.032186 0.226574 0.034233 -0.057978 0.039876 -0.031247 0.052240 0.294074 0.186142 0.198872 -0.041702 0.062242 0.023658 -0.029517 0.048481 -0.020425 0.108613 0.101564 0.103445 0.115887 0.049521 -0.127690 -0.048396 0.034810 -0.005358 -0.026183 -0.087446 -0.110560 0.011461 -0.221096 -0.169649 0.085808 -0.206446 0.249587 0.048985 0.213003 0.006463 0.138851 -0.089573 -0.175268 0.131742 0.247668 0.137546 0.086514 0.412721 0.087509 0.196962 -0.017836 0.223010 -0.067639 -0.023520 0.057019 0.118054 -0.132501 0.316833 0.267897 0.081029 -0.103174 0.044240 -0.050967 0.180051 0.021611 0.180728 -0.022923 0.307837 -0.005597 0.090773
i -0.232333 -0.174296 0.200641 0.383102 0.196658 0.136682 -0.375844 -0.079841 0.055316 -0.111950 -0.239618 0.102841 -0.170087 0.062069 -0.270067 0.123090 0.057597 0.022873 0.131151 0.099807 -0.002058 0.156216 -0.081021 0.137435 0.113142 0.114306 -0.304529 0.064817 -0.285175 0.021555 -0.015291 0.367856 0.009706 -0.005955 -0.012450 0.036239 -0.140758 0.226251 -0.214257 -0.190410 0.105274 0.284318 0.092878 0.056697 -0.086854 0.001656 -0.093605 0.131024 0.099323 -0.222916 0.126454 -0.082818 0.125017 -0.031923 0.114547 -0.075185 0.152297 0.046171 0.275734 -0.241524 0.027527 0.184650 0.122820 -0.139997 0.122769 -0.095798 -0.008743 0.111574 0.251360 0.051778 -0.091569 -0.038447 -0.136706 -0.032291 0.178788 -0.206726 0.209854 0.195052 -0.273163 -0.015346 -0.197658 -0.172069 -0.265006 0.063658 -0.170221 -0.019018 0.103968 0.124128 -0.106431 -0.045948 0.000349 -0.038488 -0.113901 0.410775 -0.415081 0.041430 -0.010661 0.002078 0.001793 0.056190
o -0.363424 -0.064283 -0.096096 0.437319 -0.070938 0.043290 -0.242629 -0.057928 0.021407 -0.286689 -0.078928 -0.239774 0.199602 0.072596 -0.531525 0.194082 -0.232122 0.062222 -0.069252 -0.057297 0.107338 0.086555 0.197220 0.212491 0.368379 0.040262 -0.156446 -0.017771 -0.161250 0.100550 -0.041124 -0.068153 0.193239 -0.080740 0.162331 0.199794 -0.169018 0.040622 -0.232051 -0.101497 -0.123977 0.151808 0.145995 -0.008174 -0.151316 0.114044 0.074825 -0.057147 0.092147 -0.025691 0.186319 0.072751 -0.195103 -0.065266 0.012762 0.110433 0.048427 0.034060 0.326722 -0.102785 -0.104958 0.265333 -0.147341 -0.031848 0.101729 0.196981 0.190746 0.199708 0.253525 -0.005785 -0.006497 0.004299 0.018971 -0.194428 0.097697 -0.113981 0.191573 0.139325 -0.082112 0.063662 -0.044617 0.197979 -0.202096 -0.029823 -0.143397 0.134997 -0.019478 0.169909 -0.111255 0.068843 0.181828 -0.073314 -0.234357 0.213564 -0.171646 0.114218 -0.117165 0.033514 0.052134 0.024926
r -0.273829 0.121318 -0.092073 0.310980 -0.028818 0.027597 -0.065909 -0.094158 0.324868 -0.112965 -0.175981 -0.169777 -0.068964 -0.116936 -0.151624 0.260262 0.103100 0.008876 -0.100176 0.040056 -0.025361 0.205641 -0.112067 0.181746 0.125153 0.151741 -0.426092 -0.093558 0.043585 0.106379 -0.012092 0.203583 0.079263 -0.247566 0.057456 0.134619 -0.116075 -0.004359 0.109421 -0.141247 0.086196 0.186588 -0.078436 -0.008612 -0.090508 -0.059670 0.046625 0.145225 0.079634 -0.135090 0.071457 -0.068596 -0.218069 0.106798 -0.099125 0.171926 0.093998 0.065844 0.166601 -0.137166 -0.141107 0.266940 0.080315 -0.056126 0.054567 -0.021535 0.242685 -0.009524 0.410033 0.233698 0.041630 0.027280 0.071591 0.152024 0.327817 -0.049230 0.129286 0.197149 0.096872 0.050325 -0.221432 -0.052060 -0.084058 0.164691 -0.100179 -0.117291 0.033504 0.155784 -0.300986 0.058821 0.175442 -0.038743 -0.001939 0.331998 -0.181830 0.225558 0.160457 0.211227 -0.072795 -0.011262
0 0.192754 -0.027283 -0.131783 -0.335606 -0.082356 -0.204712 -0.794606 -0.198955 0.018645 -0.452824 0.020405 0.092625 -0.082771 0.134605 -0.188884 -0.033286 -0.095731 0.265911 0.376880 0.397093 0.036857 0.073260 0.006063 -0.206251 0.088449 0.344407 -0.251610 -0.077830 0.209869 -0.050235 -0.050169 -0.441411 0.054323 -0.327485 -0.107985 0.329375 0.013010 0.371240 -0.038399 0.255982 0.411606 0.043829 0.560505 -0.064832 0.106789 0.055405 0.075606 0.026015 0.041237 0.343790 -0.014013 0.036752 0.286359 -0.245087 0.132213 -0.322259 0.263446 -0.223820 -0.270809 -0.278431 -0.196177 0.269374 -0.172889 -0.176631 0.009804 -0.585304 0.189656 -0.162123 -0.002399 -0.490976 -0.073499 -0.377902 -0.578777 0.053815 0.598256 -0.321451 -0.050780 0.514144 0.253014 -0.020418 0.106986 -0.117232 -0.206902 0.047726 0.038622 0.039902 -0.009528 0.150348 -0.124837 -0.024403 -0.057565 0.033399 0.070763 0.291487 0.114584 -0.012252 -0.660281 0.290787 0.443890 0.182004
s -0.227512 0.068673 0.191479 0.362063 0.217823 -0.076547 -0.314135 0.065529 0.028705 -0.158455 -0.085474 -0.009874 -0.147379 0.184430 -0.154927 0.077540 0.132909 -0.064578 -0.008340 -0.090090 -0.001722 0.010553 -0.114124 0.227575 0.213125 -0.121391 -0.244751 0.052865 -0.042388 -0.091615 -0.019377 -0.002864 0.061030 -0.137176 0.021899 0.025968 -0.131151 0.090011 0.142132 0.117860 0.084711 0.180671 0.031283 0.054710 0.001234 -0.096135 0.085823 0.056856 0.030367 -0.052124 0.073969 -0.126590 -0.005145 -0.114363 0.014579 0.002859 -0.016134 -0.027882 0.158122 -0.202861 -0.019157 0.082020 0.111345 -0.090593 0.162371 -0.041046 -0.003141 0.072952 0.247229 0.067503 -0.079497 0.010387 -0.173079 -0.205976 0.277731 -0.205305 0.114849 0.139376 0.054917 0.106772 -0.016061 0.035917 0.057696 -0.014371 -0.022506 -0.062107 0.024723 0.190416 -0.106365 -0.035788 0.111192 -0.088463 -0.123615 0.190137 -0.074182 0.034604 -0.061317 -0.017155 0.003397 0.102615
l -0.312351 -0.011398 0.088271 0.022666 0.082416 0.083294 -0.131432 0.051941 0.144910 -0.107294 -0.078746 -0.140431 -0.087424 0.172737 -0.276320 0.096667 -0.126363 0.170073 -0.055100 0.121843 -0.100307 -0.053816 -0.086107 0.069997 0.168164 0.060807 -0.217285 -0.032467 -0.084969 0.065510 -0.013227 -0.037555 0.039053 -0.109373 0.058232 0.082420 -0.088907 0.053481 -0.142750 0.022869 0.082480 0.210583 0.103115 0.034030 0.200136 -0.107172 0.060838 0.112053 -0.016955 0.118492 -0.016855 -0.007043 0.052171 0.019404 -0.019998 0.006679 0.112416 -0.056220 0.104077 -0.124026 -0.032644 0.123668 -0.077635 -0.125280 0.111928 -0.295624 -0.000749 -0.100447 0.129717 -0.059989 0.006566 -0.085476 -0.183524 0.004853 0.216596 -0.062055 0.014514 0.344586 0.089037 -0.022566 0.005744 0.062305 -0.063400 0.073189 -0.102286 0.243833 -0.086279 0.091433 -0.054103 -0.009284 -0.044315 -0.112684 0.063992 0.176598 -0.092560 0.116009 -0.093365 0.217621 0.197365 0.128074
d -0.228460 -0.026678 -0.007897 0.333941 -0.108571 0.110470 -0.235441 -0.040450 0.117306 0.097181 -0.140384 -0.249616 0.069473 -0.087633 -0.157541 0.192451 0.224678 0.017852 -0.123092 0.096877 0.192928 0.136575 0.034538 -0.024361 0.092443 0.087801 -0.312673 -0.214339 -0.159577 0.107021 -0.097899 0.072020 0.073286 0.107644 0.048881 0.058412 -0.006011 -0.074255 0.073233 -0.095131 0.066999 -0.021486 0.094881 0.052926 -0.060875 0.029599 0.148223 -0.153285 -0.130960 -0.092240 0.158348 -0.033570 -0.135773 -0.002833 0.094400 0.054215 0.168421 0.088455 -0.080069 -0.013191 -0.212661 0.147758 -0.104991 -0.029867 0.040240 0.050175 0.302248 -0.046920 0.139066 0.168044 -0.093451 0.062109 -0.126686 0.074672 0.034169 -0.004218 0.229330 -0.003338 0.051247 0.153608 0.000838 0.120362 0.003818 0.038349 0.035584 0.029173 -0.092655 0.285712 0.071373 0.024999 0.094302 0.030020 -0.085883 0.170188 0.006645 0.020061 -0.088201 0.217506 -0.064313 -0.052842
h -0.241524 0.099240 -0.058397 0.191141 0.157266 0.055048 -0.027103 -0.114090 0.122973 -0.188206 -0.126560 -0.093070 -0.153229 -0.114152 -0.415360 0.043038 0.126052 0.094996 0.227962 0.049106 0.161662 0.114364 -0.349101 0.095439 0.262124 0.089594 -0.243228 0.004639 0.019852 0.011888 -0.034455 0.096694 0.027659 -0.135572 0.039651 0.075836 -0.221397 0.074244 -0.063113 -0.094535 0.039703 0.147933 0.231122 -0.013202 0.004144 0.188876 -0.021057 0.060714 -0.023130 0.229729 0.031738 0.071408 -0.109469 -0.033216 -0.071598 -0.158552 0.148143 -0.062496 0.171508 -0.066889 0.040121 0.278958 -0.209627 -0.257776 0.301449 -0.123755 0.229277 0.015362 0.035284 0.165743 0.114069 0.065230 -0.077590 -0.100734 0.272203 -0.324501 -0.042457 0.175291 0.066159 -0.271360 0.058576 0.028049 -0.128736 -0.016409 -0.075759 0.191982 -0.151679 0.084447 -0.127754 -0.205741 -0.105298 0.069362 0.003215 0.147492 -0.250002 0.067842 -0.180829 0.231662 0.290891 0.033143
c -0.284444 -0.420089 0.065061 -0.117422 -0.012839 0.047921 -0.245876 0.010155 0.362756 0.059961 -0.187394 -0.173149 -0.229318 -0.011949 0.044360 0.234882 0.071137 -0.019363 0.039254 0.043904 0.044741 -0.061608 0.222521 0.007122 0.137628 0.285148 -0.175546 -0.013878 -0.086154 0.238176 -0.051266 -0.064677 0.090135 -0.042658 0.144960 0.205712 0.034168 0.168912 -0.109489 -0.041199 0.448729 -0.079779 0.148295 -0.094479 -0.104333 0.091548 0.128673 -0.128737 -0.060453 -0.141734 0.182895 -0.032522 -0.025717 0.124179 0.061264 0.028376 -0.265707 -0.017931 0.054539 -0.045896 -0.073659 0.018565 0.041437 0.008750 0.130944 0.200422 0.158695 0.085998 0.245063 -0.289611 0.035959 -0.003843 -0.007331 0.206598 0.189466 0.258370 0.093311 0.179443 0.210431 0.090540 -0.135451 -0.045256 -0.205106 0.111976 0.020741 0.040597 0.054203 0.187702 -0.310485 0.057599 0.139297 0.039506 -0.241070 0.295676 -0.140917 0.040542 -0.061045 0.205749 0.243498 -0.059250
u 0.050571 -0.122575 0.116074 0.174590 0.303969 0.268821 -0.269279 0.030240 0.198980 -0.133730 -0.089895 0.080084 -0.143720 0.367859 -0.402637 -0.069617 0.025203 0.216970 -0.153906 -0.023154 -0.025963 0.016827 -0.190716 0.079976 0.271322 0.047414 0.147658 -0.031488 -0.030771 0.262412 0.083423 -0.044474 -0.065389 -0.086842 -0.131243 -0.146762 -0.114414 0.121006 -0.177932 0.047233 0.088591 0.248833 0.144998 0.036994 0.001022 0.164526 0.051063 0.243144 0.069539 -0.086493 -0.107837 0.298819 0.132293 -0.121052 -0.048103 -0.092726 -0.041814 -0.060654 0.208905 -0.188708 0.133417 0.301123 -0.172188 -0.143422 0.068075 0.019630 -0.124973 -0.036167 0.119808 -0.220398 -0.130694 0.156939 -0.232601 -0.228730 0.228602 -0.246392 0.256832 0.257963 -0.186226 -0.061956 -0.172563 -0.100291 -0.208924 0.020019 -0.249810 0.094897 -0.019757 0.151075 -0.149916 -0.107232 -0.143373 -0.118686 -0.046813 0.315347 -0.196057 0.240259 0.048167 -0.032664 -0.027834 0.002737
m -0.375362 -0.095553 -0.015057 0.362468 0.062225 -0.186481 -0.182066 -0.045359 0.039325 -0.360401 -0.145479 -0.181893 0.211575 0.158399 -0.363027 0.248482 0.020251 0.061992 -0.098936 0.087451 -0.158472 0.099705 0.031756 0.205711 0.243065 0.286276 -0.222093 -0.181421 0.053312 0.260544 -0.104723 -0.101897 0.016344 -0.083354 0.010831 0.018271 -0.037891 -0.016659 0.017747 -0.061160 -0.049701 0.297020 0.090510 0.164029 -0.075029 -0.160014 -0.059780 0.205300 -0.151423 -0.010564 0.175504 0.128021 0.072219 -0.028430 -0.041603 0.062644 0.352016 0.086645 0.105051 -0.165963 0.034457 0.399481 -0.053562 -0.145225 -0.012894 -0.137490 0.095133 -0.116168 0.121723 0.078860 -0.016424 -0.050447 -0.112270 -0.050767 0.179160 -0.389598 0.100265 0.041333 -0.216160 0.050956 0.031364 -0.133703 -0.038945 0.184938 0.028444 0.051538 -0.046719 0.079705 -0.088711 -0.233525 -0.072259 -0.293592 -0.004488 0.119647 -0.183806 0.203134 -0.096608 0.338565 0.089150 0.052846
f -0.125854 0.104126 0.094224 0.146491 0.145066 -0.125157 -0.262258 -0.049048 -0.163461 -0.120408 -0.163188 -0.195137 -0.126534 -0.191482 -0.175830 -0.008240 0.145976 -0.032943 -0.111077 0.139654 0.070815 -0.035865 -0.088754 0.166416 0.147708 -0.156872 -0.468472 -0.257225 -0.220484 0.032235 -0.089915 0.124390 -0.157829 -0.035643 0.254586 0.104032 0.031798 0.076560 -0.021889 -0.047718 0.285748 0.189878 -0.004971 0.140291 0.017447 -0.213156 0.245286 0.091132 -0.120447 0.008216 0.208153 -0.067400 -0.118575 -0.147031 -0.016012 0.116825 0.029836 -0.031026 0.172018 -0.182084 -0.084581 0.251541 0.055030 0.100551 0.127818 0.062412 0.180494 0.199394 0.162606 0.178508 -0.162277 0.028116 0.008864 -0.114092 0.221461 -0.096629 0.059122 -0.071755 0.192411 0.259726 -0.069743 -0.020758 -0.115376 0.012284 -0.065616 0.158731 0.063701 0.105822 -0.060910 0.086197 0.120761 0.006688 -0.128746 0.238868 -0.083999 -0.061968 0.081817 -0.015363 -0.199919 -0.069384
p -0.349515 0.012721 -0.001852 0.334338 0.077378 0.125722 -0.300156 0.060028 -0.010760 -0.200756 -0.216430 -0.069524 0.073125 0.048555 -0.251443 0.133667 -0.159792 -0.044798 0.050806 0.038628 -0.117082 0.076767 0.115854 0.120629 0.209158 0.181809 -0.181458 -0.086126 -0.224798 0.096737 0.009762 0.027784 0.023589 -0.011848 0.220177 0.025708 -0.133952 0.110166 -0.073506 -0.067659 0.157436 0.116011 -0.022165 -0.067802 -0.040156 -0.158747 0.064774 0.161159 0.016016 -0.122573 0.118706 0.084679 -0.066057 0.005327 -0.029350 0.116869 -0.002117 0.019948 0.224186 -0.245318 -0.137876 0.193404 -0.078880 0.042372 0.079817 0.065409 0.154497 0.095380 0.424305 -0.060486 0.008584 0.034003 0.062847 -0.006925 0.209250 -0.019776 0.252017 0.009598 0.015552 0.240728 -0.047678 -0.098155 -0.348033 -0.038334 -0.085470 0.040220 0.175793 0.128714 -0.138346 0.054415 -0.063517 -0.055415 -0.101887 0.242568 -0.124775 0.166434 0.178676 0.083198 0.007028 0.007129
g -0.359953 -0.067975 0.017029 0.230605 0.185002 -0.016972 -0.116392 0.119232 0.164517 -0.138432 -0.127217 -0.322401 0.075185 0.165839 -0.236282 0.132850 -0.012365 0.119599 -0.040065 0.183213 0.142360 0.148924 0.094116 0.141798 0.140346 0.280271 -0.397619 -0.187158 -0.227511 0.308785 0.006710 0.111004 0.181997 -0.026546 0.212508 0.081021 -0.172699 0.124630 0.114640 -0.200027 0.176271 0.041515 -0.056151 0.074899 -0.213411 -0.120656 0.091852 0.036000 -0.082354 -0.156372 0.213728 -0.073824 -0.132292 0.034131 0.005325 0.176096 -0.158941 0.041717 0.129355 -0.181277 0.093280 0.224176 0.011997 -0.064942 0.072549 -0.096315 0.066336 0.023362 0.403558 0.175676 -0.127144 0.043368 -0.012244 0.107956 0.282765 -0.074817 0.154080 0.031359 -0.010779 0.329303 -0.069810 -0.149970 -0.185696 0.244433 0.016474 0.228588 0.070777 0.146954 -0.263884 0.126795 0.233298 -0.132904 0.030497 0.449621 -0.247541 0.249017 0.135499 0.259384 -0.088389 -0.030825
. -0.361768 -0.221961 0.137997 0.185041 -0.061476 0.077581 -0.624962 -0.115782 0.101042 -0.104683 0.088165 0.092912 -0.027899 -0.021434 -0.095925 -0.012671 0.168264 0.076571 0.494991 0.399791 0.043979 0.129144 -0.132354 -0.003447 -0.294696 0.315039 -0.015084 0.105848 0.114615 -0.217717 -0.067267 -0.139989 0.136884 -0.246813 -0.150031 0.079255 0.141144 0.162565 -0.160226 0.256656 0.432937 0.201300 0.401418 0.044277 0.047034 0.073495 0.052473 0.189951 0.131937 0.380416 0.209905 0.077123 0.362468 -0.197884 0.066066 -0.504125 0.325373 -0.199340 -0.019573 -0.052181 -0.056553 -0.019405 -0.214197 -0.057621 0.393072 -0.168644 0.190996 0.204121 -0.155771 -0.716032 0.158411 -0.256848 -0.438121 0.214479 0.405179 0.144776 -0.151562 0.389013 0.224661 0.007392 -0.175672 0.075553 -0.081006 -0.172888 0.169649 0.139937 -0.150420 0.354179 0.039101 -0.178580 -0.227135 0.298832 0.119866 0.326621 -0.050431 -0.139654 -0.469242 0.427339 0.291503 0.088524
y -0.217212 0.199978 -0.003408 0.090764 0.018726 0.146608 -0.163813 -0.311591 0.204526 0.174399 -0.166288 -0.006763 -0.117142 -0.065538 -0.117270 0.117708 0.171657 0.043517 -0.019921 0.007166 0.242933 0.065698 0.266476 0.048375 0.245817 0.109597 -0.132162 -0.130757 -0.097025 0.238450 -0.131579 -0.191168 -0.011454 0.109979 0.183268 0.011896 -0.165496 0.084031 0.240433 -0.078049 0.166568 -0.057232 -0.011504 -0.019612 -0.131383 0.114980 0.163081 -0.184147 -0.076419 -0.218163 0.262555 0.114962 -0.075542 -0.149068 0.087479 0.301125 -0.090311 -0.010253 0.064584 0.051438 0.018393 0.292159 0.102867 -0.093357 0.110024 0.052440 0.071150 0.114678 0.278609 0.132467 0.097851 0.038359 -0.140844 -0.299283 0.161183 0.013248 0.062536 -0.005824 0.100350 0.255866 0.056418 0.092896 -0.232904 0.017900 -0.019697 0.095008 0.139393 0.135684 -0.168779 0.014731 0.252081 -0.029407 -0.219443 0.284302 0.015610 0.104836 0.008845 -0.069033 -0.193933 -0.070008
w -0.072923 0.008380 0.066574 0.085783 0.190551 -0.034458 -0.203863 0.049675 0.121380 -0.122169 -0.177983 -0.117883 -0.012197 -0.048117 -0.213613 -0.048345 0.003274 0.065346 -0.249327 0.202553 0.048510 0.066322 -0.115800 0.122388 0.124976 0.045898 -0.362161 -0.166025 0.000262 0.189403 -0.048540 0.080482 -0.196264 -0.131825 0.138415 0.225099 0.029392 -0.113305 0.025747 -0.077215 0.137886 0.202751 0.039890 0.087774 -0.078808 -0.163031 -0.083479 0.176812 -0.045507 0.014860 0.043749 0.037206 -0.108351 -0.040448 -0.200759 0.102720 0.155728 0.173991 0.117069 -0.339047 -0.037117 0.397781 0.026218 -0.100063 -0.191864 0.064922 0.217711 -0.135754 0.276169 0.223852 -0.011689 0.028173 0.173909 0.191219 0.319715 -0.082570 0.234207 0.236460 -0.028438 0.186934 -0.198412 -0.129314 -0.012613 0.048564 -0.043465 -0.001428 -0.053435 0.021150 0.012738 0.064182 -0.022163 -0.322111 -0.173264 0.255819 -0.316596 0.267293 0.086853 0.140861 -0.054856 0.038237
- -0.371932 -0.193259 0.175828 -0.066566 0.161189 -0.043105 -0.197444 -0.112220 0.006909 -0.286025 -0.041109 0.069216 -0.001378 0.270366 -0.475805 -0.007326 -0.003925 0.431409 0.302995 0.351597 0.103592 -0.072376 -0.143773 0.003573 0.165341 0.430939 -0.246695 -0.250625 -0.146871 0.067654 0.100324 -0.199542 -0.092925 -0.132727 0.001741 0.007764 0.107915 0.286418 -0.352577 0.158228 0.310447 0.139759 0.402263 0.159251 0.006550 0.161700 -0.002714 -0.112546 -0.129676 0.045551 0.114623 0.161864 0.471869 -0.104439 0.265946 -0.360527 0.167828 -0.112548 0.023338 -0.104842 -0.102012 0.248307 -0.204512 -0.289209 -0.016277 -0.291682 0.087637 -0.176879 0.127956 -0.271331 -0.141776 -0.185496 -0.437365 -0.069401 0.210163 -0.364587 0.072441 0.465877 -0.160391 -0.081791 0.162618 -0.102410 -0.218482 0.100920 0.036341 0.009744 0.011697 0.097506 0.030865 -0.241370 -0.100113 -0.163656 -0.188711 0.126594 -0.168263 0.143129 -0.316005 0.302394 0.420766 0.097715
b -0.334187 -0.027583 -0.066871 0.132193 0.003858 -0.212091 0.144556 0.184570 -0.007819 -0.043476 -0.400819 -0.134188 -0.124394 -0.148944 -0.264089 0.166184 -0.227326 -0.075209 0.009950 0.027595 -0.114658 0.009002 0.115916 0.131302 0.073632 0.134562 -0.145189 0.027548 -0.184299 0.128067 0.033671 0.019285 0.012655 -0.176705 0.096910 0.087741 0.040636 0.021093 -0.131202 -0.076944 0.115240 0.297266 0.117667 0.146016 -0.045099 -0.145363 0.042298 0.157660 -0.087423 -0.064077 0.199024 0.024977 0.073808 0.032440 0.022569 0.032310 0.260927 -0.040525 0.348120 -0.248986 0.014176 0.206910 -0.040649 -0.086070 0.087919 0.033394 0.142589 -0.143800 0.222635 -0.088563 0.011472 -0.064784 0.174980 -0.041762 0.208379 -0.179200 0.081404 0.062651 0.086550 0.032895 -0.058366 -0.107093 -0.257969 0.074622 -0.134107 -0.099696 0.147918 -0.069414 -0.352981 -0.222791 0.111747 -0.131764 -0.088493 0.289284 -0.261915 0.034160 0.051415 0.173012 0.137446 -0.052385
, -0.282224 -0.093839 0.005208 0.299186 0.016282 -0.102270 0.020425 0.083636 0.006983 0.059235 -0.260399 -0.216537 -0.078008 -0.262156 -0.118049 0.149118 -0.031397 -0.036092 -0.036522 0.019644 -0.038446 0.194521 -0.010121 0.134297 0.060747 0.300537 -0.483151 0.093243 -0.277204 0.195789 0.031825 0.139738 0.018555 -0.108050 0.081496 0.019778 0.044881 -0.029440 -0.089538 -0.017251 0.299187 0.266034 0.190771 0.074361 0.078101 -0.053140 -0.114090 -0.050589 -0.102121 -0.137534 0.342086 0.054432 -0.037259 0.134690 -0.017214 -0.004833 0.154124 0.029303 0.226018 -0.113157 -0.129931 0.022743 -0.044708 -0.242146 0.235780 -0.109477 0.212334 0.178182 0.302818 0.174777 -0.029654 -0.080615 0.086392 0.072879 0.129929 -0.057860 -0.076046 0.327780 0.111704 0.036048 0.019932 0.040334 -0.032425 0.147481 -0.012534 -0.093036 -0.076199 0.143900 -0.027076 0.058334 0.141006 -0.080943 -0.093127 0.191951 -0.245334 0.132008 0.005835 0.391206 0.000971 -0.073510
S 0.010294 0.177063 -0.005831 -0.089932 -0.037442 0.186352 -0.094593 0.058913 0.084836 0.146361 -0.122233 -0.065032 0.038085 0.189838 -0.047186 0.095804 -0.041829 0.122246 0.024114 0.290746 -0.077598 0.177831 0.026339 -0.022317 -0.285203 0.301783 -0.306810 0.133554 -0.051124 -0.280094 0.051311 -0.228381 -0.058024 -0.083254 0.011431 0.184064 0.331272 0.090506 -0.128154 0.343632 0.555919 0.247811 0.241067 0.104515 0.161369 0.123846 0.129995 -0.072148 -0.038047 0.162041 0.109309 0.269759 0.575144 -0.061407 0.151624 -0.208394 0.313231 -0.187292 -0.233704 0.035041 -0.237014 0.025088 0.027675 -0.121442 -0.067813 -0.513699 0.130826 -0.186652 0.285137 -0.320046 -0.098535 -0.137932 -0.437941 0.174854 0.257741 -0.013213 -0.094705 0.598000 0.506865 0.102035 0.188831 0.157544 -0.175458 0.200606 -0.042145 0.011676 -0.009654 0.267302 -0.032046 -0.016245 -0.034243 -0.090465 0.171217 0.165723 0.192986 0.193149 -0.189137 0.495948 0.273504 0.221956
A -0.380731 -0.218597 0.391057 -0.147525 -0.222834 0.480583 -0.511364 -0.113645 0.440561 -0.056303 -0.072631 -0.116262 -0.052113 0.203673 -0.311050 0.023502 -0.284574 0.412552 0.128539 0.615894 0.070256 -0.167178 -0.432510 0.037868 -0.236362 0.031014 -0.528983 0.004522 -0.148706 -0.050694 -0.052677 -0.174780 -0.041796 0.009522 0.085444 0.124424 0.060557 0.253812 -0.343436 -0.107299 0.709416 0.210982 0.541521 0.043230 0.114550 0.205674 0.178135 -0.099606 -0.098971 0.152690 -0.050145 0.217043 0.478726 0.180294 0.244160 -0.306173 -0.078564 -0.230567 -0.407056 0.191412 -0.116325 -0.364199 -0.144685 -0.104762 0.198120 -0.197472 0.349882 -0.163460 0.067871 -0.253450 0.016733 -0.276686 -0.408973 0.268771 0.374475 0.140116 -0.041853 0.850791 0.144269 -0.206344 -0.036612 0.230627 0.082699 0.104165 -0.112825 0.025729 -0.096085 0.416233 0.082165 0.213860 -0.079610 0.061959 -0.124937 0.192839 0.316482 0.093384 -0.450022 0.307362 0.256939 0.214829
T -0.134105 -0.247031 0.061243 0.145112 -0.039017 0.117498 -0.449945 -0.211955 0.395741 0.081610 -0.241453 0.049726 -0.104522 0.057904 -0.119795 -0.056960 0.465827 0.422125 0.133573 0.534024 -0.148125 0.040228 -0.244216 -0.010025 -0.109298 0.305277 -0.249692 -0.184653 -0.046108 0.112192 -0.099258 -0.296067 -0.249633 0.001232 -0.054791 -0.013963 0.213300 -0.006503 -0.198169 0.302579 0.287361 -0.008913 0.440506 0.057101 0.284041 0.236573 0.073665 -0.131314 0.080991 0.122252 0.143913 0.198211 0.212216 -0.282808 0.249349 -0.268994 0.056608 -0.145233 -0.213505 0.093886 -0.297523 0.008345 -0.142693 -0.142091 0.261708 -0.330416 0.186571 -0.016578 0.207407 -0.258686 0.134947 -0.324137 -0.525857 0.243399 0.389252 0.006127 0.010974 0.723018 0.066620 -0.028651 0.082580 -0.078978 0.137494 0.104039 0.119405 0.096967 -0.204969 0.242404 0.386741 -0.164106 -0.254220 -0.046794 -0.038607 0.263556 0.038853 0.103355 -0.356208 0.387474 0.259863 0.070591
v -0.306312 -0.007974 0.075831 0.032333 0.182206 -0.113138 -0.080277 -0.126491 0.064376 -0.330913 -0.057296 -0.030044 0.045965 0.175137 -0.320054 0.010655 0.164820 0.138259 0.243754 0.209243 0.120907 -0.043292 -0.324518 0.083164 0.190283 0.080797 -0.262359 -0.107887 -0.182419 -0.177666 -0.093557 0.142094 -0.153799 -0.023598 0.121238 0.070930 -0.172280 0.235473 -0.257274 -0.134454 0.199391 0.258159 0.107562 0.167768 0.048783 0.071125 0.134443 -0.018134 -0.027112 0.088034 0.047229 0.059851 0.266944 -0.060177 0.149350 -0.102791 0.046495 -0.023171 0.111757 -0.126365 0.042340 0.311563 0.072752 -0.164877 0.095419 -0.131463 0.140139 0.034670 0.167152 -0.109441 -0.000035 -0.064569 -0.257203 -0.165979 0.194739 -0.119039 0.072720 0.253539 0.050912 0.110978 0.010606 -0.023637 -0.155704 -0.060933 -0.017343 0.297943 -0.136654 0.133241 0.087210 -0.131668 -0.155325 0.075170 0.004891 0.205902 -0.251162 0.157664 -0.262494 0.265333 0.367763 0.193820
k -0.204488 -0.131778 0.050010 0.097244 0.124711 0.085737 -0.151998 -0.124141 0.175227 0.005596 -0.101307 -0.001450 0.065207 0.270365 -0.169663 0.182783 -0.160101 -0.084453 0.144494 -0.008989 0.013323 -0.008091 0.110256 0.208464 0.089401 0.151226 -0.114740 0.065268 -0.197618 0.080143 -0.069821 -0.055715 0.210145 0.001522 0.070296 -0.084180 -0.150554 0.238676 -0.070963 -0.234008 0.185572 0.185542 0.010164 0.154857 -0.196578 0.063496 0.160290 0.116132 -0.101446 -0.189635 0.191889 -0.066515 0.101895 0.005961 0.013129 0.062186 -0.015124 -0.110679 0.043315 -0.025525 0.107856 0.127427 0.002092 -0.210868 0.073002 0.082305 0.058782 0.026653 0.297330 -0.161183 -0.069986 0.081842 -0.057461 -0.152383 0.168513 -0.048827 0.246090 0.085647 0.107703 0.118723 -0.200027 0.155213 -0.350750 0.055383 -0.215054 0.062969 0.116660 0.121621 -0.297468 -0.234548 0.033943 0.001830 -0.060019 0.155330 -0.189898 0.112974 0.020881 0.095351 0.064027 0.045030
C -0.284671 -0.090417 -0.014050 0.140581 -0.009548 0.193557 -0.149045 0.152894 0.205554 0.138104 0.003756 -0.257688 0.101264 0.123891 -0.133436 -0.031311 -0.004730 0.184362 0.041789 0.364635 -0.079973 0.132148 -0.280925 0.130706 -0.114209 0.265674 -0.284828 0.081691 -0.154591 -0.147745 -0.066296 -0.266777 -0.086671 -0.046966 0.208628 0.186514 0.260045 -0.070815 -0.409459 0.381923 0.508442 0.344209 0.305013 0.054840 0.385836 0.184986 0.131514 -0.034369 -0.016363 0.213829 0.080521 0.167766 0.378348 0.020619 0.052916 -0.257528 0.164742 -0.189501 -0.037927 -0.043349 -0.363733 0.099675 0.035597 -0.164596 0.251427 -0.340738 0.072200 -0.013033 0.292953 -0.435201 -0.033345 -0.134916 -0.384448 0.193026 0.265758 0.082697 -0.050945 0.871444 0.240469 0.142747 0.068701 0.071672 -0.091213 0.223932 0.058824 0.324920 -0.174806 0.401755 0.155172 -0.078687 -0.117925 -0.095989 0.144723 0.243232 0.199431 0.299517 -0.077879 0.482859 0.230965 0.172407
R -0.101378 -0.195856 -0.037859 0.053370 -0.389014 -0.086614 -0.407110 -0.126767 0.083754 -0.175640 0.173407 -0.156907 -0.111196 0.053807 -0.085200 0.040669 -0.036477 0.341281 -0.100176 0.558514 -0.103336 -0.091451 -0.147942 -0.136619 -0.132192 0.143091 -0.385435 -0.049333 -0.012565 -0.185643 0.033069 0.035873 -0.162176 -0.199275 0.170330 0.329228 0.102845 0.113931 -0.128043 0.104472 0.598652 0.233390 0.387391 -0.055491 0.334196 0.079592 0.283125 0.018820 0.159438 0.319028 -0.049725 0.248785 0.385785 0.004268 0.045824 -0.199202 0.168166 -0.159839 -0.171889 -0.007564 -0.211715 -0.038318 0.018463 0.060258 0.155140 -0.373887 0.394194 -0.122139 0.173039 -0.442022 0.220633 -0.280639 -0.230685 0.147784 0.334719 0.241604 -0.243696 0.655543 0.268445 0.128886 -0.027065 0.140723 -0.232194 0.072521 -0.023204 0.283779 -0.064562 0.309260 -0.143233 0.042647 -0.137279 -0.037954 0.127765 0.192439 0.261259 0.184103 -0.282125 0.553077 0.362235 -0.027890
I -0.332731 0.162077 -0.227864 -0.114066 -0.394715 -0.090100 -0.141789 0.078363 0.071226 0.198088 -0.123603 -0.266270 -0.010358 -0.112090 -0.281715 -0.105383 -0.147183 0.077631 0.180909 0.443862 -0.023736 -0.021402 -0.332048 -0.128948 -0.265225 -0.033355 -0.145380 0.097687 -0.275267 -0.095146 -0.070778 -0.228462 0.007333 0.087992 0.092710 0.322140 0.272070 -0.171598 -0.373353 0.312783 0.395601 0.160170 0.589734 -0.100411 0.421548 0.040347 0.249750 0.004248 0.121114 0.218515 0.023238 0.086281 0.235109 0.034483 0.389507 -0.309353 0.312342 -0.360050 -0.097611 0.114532 -0.476768 -0.261450 0.081617 0.135924 0.344148 -0.134167 0.348053 -0.039871 0.043905 -0.505892 0.108384 -0.376830 -0.238148 0.150119 0.199742 0.198679 -0.083290 0.635066 0.130790 -0.020253 -0.063507 0.035118 -0.112640 -0.015312 -0.081481 0.217386 -0.241911 0.332740 -0.118313 -0.083615 -0.063786 0.208505 0.156492 0.223879 0.439529 -0.027373 -0.308544 0.443848 0.577748 -0.080169
O -0.380918 -0.188784 0.351567 -0.177772 -0.168934 0.219492 -0.244165 0.022629 0.423899 -0.117695 -0.057020 -0.055710 -0.292991 0.177526 -0.315943 0.106649 0.080527 0.302957 0.168648 0.346382 0.066057 -0.093765 -0.362267 -0.074879 0.132981 0.076473 -0.354515 -0.134584 0.098743 -0.000003 -0.072434 -0.294893 -0.158258 -0.140204 0.149684 0.363122 0.060131 0.033140 -0.176522 0.259220 0.420524 0.164697 0.507708 -0.130266 0.322599 0.037478 0.035861 -0.065436 0.055869 0.266882 -0.108414 0.084756 0.470593 0.134129 0.128362 -0.342269 0.099570 0.002597 -0.066813 -0.034334 -0.294239 0.032540 0.043327 -0.044368 0.069789 -0.251768 0.252484 -0.160425 0.104122 -0.280947 0.038209 -0.328106 -0.265690 0.155578 0.261746 -0.025596 -0.011631 0.775865 -0.012391 -0.048660 0.092520 -0.021129 0.100327 0.055717 0.009970 0.106155 -0.188452 0.183478 0.063480 -0.082873 -0.107023 -0.114244 -0.049945 0.077733 0.108204 0.164607 -0.291720 0.438308 0.525228 0.124185
N -0.271101 -0.100932 0.084936 -0.022553 -0.170011 -0.093467 -0.363057 -0.251233 0.175394 -0.008136 0.029323 -0.110612 0.016133 -0.198726 -0.225159 0.145794 0.058955 0.187788 0.166124 0.298724 -0.024613 -0.010043 -0.134214 0.008059 -0.039334 0.099199 -0.475698 -0.117524 -0.194148 -0.218564 -0.143241 -0.250252 0.004903 0.062216 0.231114 0.276249 0.186221 0.187573 -0.222813 0.238371 0.495433 0.138328 0.455892 -0.135680 0.254665 -0.018508 0.113049 -0.111273 -0.016940 0.227023 0.059948 0.047749 0.376243 0.054218 0.136470 -0.396938 0.120640 -0.171266 -0.313546 0.129161 -0.339284 -0.200055 -0.052000 0.173217 0.233712 -0.249160 0.391688 0.234005 -0.068139 -0.404571 -0.065727 -0.228163 -0.302716 0.180591 0.199495 -0.015773 -0.004388 0.345790 0.111399 0.059248 0.057021 0.012596 -0.177703 0.127018 0.125161 0.503972 -0.153773 0.427708 0.266829 0.180581 -0.062561 0.336880 0.084535 0.211915 0.303531 -0.059031 -0.296413 0.412539 0.262560 0.151374
E -0.486698 -0.165296 0.351573 0.075386 -0.301775 0.043675 -0.447284 0.035915 0.289205 -0.023695 0.107222 -0.062062 0.004820 0.483752 -0.270761 -0.125388 -0.126942 0.276210 0.219882 0.469341 0.093775 -0.089671 -0.511077 0.111766 -0.163758 0.061325 -0.204793 0.120512 -0.050974 -0.101968 -0.021902 -0.394927 0.122447 -0.053035 -0.041396 0.177213 0.093405 0.096658 -0.210987 0.283263 0.516108 0.163562 0.427631 -0.046432 0.193621 0.181827 0.079045 -0.058500 0.102677 0.287171 -0.043639 0.057965 0.564498 -0.004633 0.335742 -0.523481 0.234030 -0.165483 -0.241697 0.044355 -0.299241 -0.153589 0.111653 -0.025368 0.350028 -0.119241 0.227414 -0.061264 -0.105403 -0.809013 -0.027547 -0.199833 -0.445168 0.140390 0.220422 0.072880 -0.234950 0.745481 -0.024007 0.072182 -0.013656 -0.063694 0.116038 0.123274 0.099265 0.203852 -0.107246 0.296667 -0.029889 -0.167472 -0.112633 -0.056787 0.124141 -0.048313 0.337015 0.205797 -0.297795 0.391760 0.252668 0.104207
M -0.229683 0.035110 -0.359422 0.037737 -0.167215 -0.022392 -0.396297 -0.164207 0.043250 -0.052159 -0.086199 0.153372 -0.282316 0.121497 -0.000025 0.093222 0.132885 -0.077615 0.238818 0.256366 0.060627 0.143682 -0.179829 0.038657 -0.038400 0.174746 -0.290856 0.188019 -0.013229 0.075898 -0.202515 -0.235358 0.099117 -0.043376 -0.174625 0.186009 -0.000132 0.024036 0.098942 0.195344 0.390725 0.148581 0.456966 -0.083839 0.103572 0.093785 0.110512 0.141390 0.129531 0.109467 0.259546 0.019491 0.310644 -0.099459 0.088660 -0.225890 0.279497 -0.225861 -0.017621 -0.026847 -0.097504 -0.030722 0.032706 -0.256892 0.445116 -0.062339 0.186278 0.023010 0.256060 -0.191390 0.281753 -0.167094 -0.221824 0.076492 0.356149 0.049446 -0.179125 0.504548 0.314485 -0.065897 -0.058501 0.168009 -0.101745 -0.059041 0.093138 0.088898 -0.061414 0.257234 -0.119051 -0.340776 -0.109766 0.076536 0.021866 0.308514 0.037495 -0.010397 -0.316352 0.119533 0.372901 -0.057100
D -0.113197 -0.127859 0.027877 -0.205808 -0.325290 0.129676 -0.472542 -0.051982 0.220414 -0.074566 0.012866 -0.118205 -0.090854 0.104267 0.003561 -0.045233 -0.088468 0.143591 0.056207 0.455086 0.007672 -0.113953 -0.343490 0.104525 -0.083804 0.004496 -0.432815 -0.076000 -0.131226 0.145531 -0.203684 -0.337995 -0.002247 -0.099128 0.108929 0.288852 0.115512 0.062709 -0.101258 0.047407 0.530432 0.064420 0.415227 0.182549 0.247778 0.088175 0.281715 -0.085112 -0.062397 0.191586 0.110219 -0.089526 0.231459 0.135587 0.163150 -0.241505 -0.024733 -0.011990 -0.055963 0.044818 -0.252041 -0.239831 -0.092148 -0.066599 0.322318 -0.199297 0.219216 -0.011946 0.229449 -0.285626 -0.094339 -0.202680 -0.243835 0.324992 0.282572 0.271648 -0.165205 0.720700 0.332108 -0.099770 -0.047274 0.258073 0.229470 0.102471 -0.009628 0.138985 -0.243625 0.305523 0.044043 0.152125 0.030524 0.179342 0.109679 0.189302 0.090896 0.011458 -0.221379 0.516782 0.384844 0.068380
B -0.095246 0.059085 -0.029434 -0.185172 0.034116 0.080695 -0.183136 -0.395052 0.026793 -0.183869 -0.074654 0.214675 -0.024878 0.088446 -0.208332 -0.045642 0.163777 0.253539 0.091972 0.330527 0.157071 -0.020531 -0.131874 -0.062343 0.076181 0.331622 -0.273897 -0.154777 0.265988 0.039122 -0.049152 -0.258706 -0.075541 -0.252578 -0.150266 -0.017407 0.149488 0.230346 -0.022083 0.178872 0.308164 0.119088 0.396509 0.119986 -0.021708 0.166304 -0.014030 -0.011898 0.010817 0.225263 0.116348 0.171850 0.354717 -0.128428 -0.014445 -0.295342 0.198420 -0.163371 -0.255877 -0.012991 -0.048734 0.103424 -0.093786 -0.393694 0.181893 -0.205275 0.150743 -0.055802 -0.034891 -0.170917 0.277044 -0.170642 -0.274336 0.059002 0.295309 -0.096004 -0.171341 0.408495 0.151911 -0.062860 0.023681 -0.008293 -0.118602 -0.015425 0.231893 0.128509 0.007883 0.107987 0.148768 -0.133225 -0.209014 -0.093595 -0.126787 0.077917 -0.071235 0.152475 -0.386299 0.102306 0.156353 0.134757
L -0.234782 0.029047 -0.222720 0.116676 -0.246947 -0.001246 -0.151283 -0.260135 0.029880 -0.125012 -0.253141 -0.148271 0.114355 0.012467 -0.109362 0.067819 -0.070665 0.079295 0.273189 0.336892 -0.008049 -0.042572 -0.067273 0.021591 0.068758 0.225350 -0.341058 0.027542 -0.021537 -0.039986 -0.267755 -0.331601 0.048580 0.040418 0.153813 0.196765 0.164680 -0.013948 -0.091796 0.303145 0.369756 0.093651 0.365172 -0.005408 0.179276 0.066497 0.084437 -0.208176 -0.030737 0.275497 0.130753 -0.068316 0.224596 -0.101275 0.202869 -0.182679 0.170136 -0.144245 -0.219949 0.071332 -0.429677 0.018100 -0.021283 -0.194902 0.365573 -0.188899 0.307920 0.068983 0.313946 -0.211878 0.298749 -0.351862 -0.348908 0.091623 0.330279 0.018112 -0.055903 0.725375 0.139868 0.307612 0.201351 0.221689 -0.066589 -0.086774 0.158343 0.122148 0.042786 0.192021 0.209004 0.007617 -0.197900 -0.067475 -0.133835 0.073387 0.190074 0.274488 -0.225605 0.376636 0.147748 0.192467
) 0.023232 -0.229276 -0.279651 0.190900 0.140470 -0.013351 -0.414324 -0.044174 0.316063 0.102435 -0.263124 -0.135319 -0.103927 0.436873 -0.385529 0.114948 0.116164 -0.019050 -0.266093 0.001717 -0.086874 -0.171857 -0.117962 0.113430 0.313481 0.061997 -0.402975 -0.124473 -0.186253 0.032616 0.017734 0.220251 -0.097105 -0.047180 -0.044699 -0.097099 -0.101299 0.228565 -0.473520 -0.211485 0.031394 0.221877 0.043685 0.222250 0.046093 0.101383 0.241038 0.198078 0.103385 -0.225837 0.159087 0.030583 -0.028764 -0.046307 0.142124 0.187192 0.081760 0.094643 0.037150 0.004261 -0.131571 0.461227 0.242280 -0.159633 -0.045069 0.003253 -0.000300 0.045725 0.500692 0.040622 -0.193340 0.077158 -0.229443 -0.170597 0.201347 -0.275514 0.250333 0.228852 0.134252 -0.039146 -0.070679 -0.043940 -0.282618 0.243234 -0.326332 0.045979 -0.022557 0.168007 -0.319821 -0.167119 0.027758 -0.320115 -0.088255 0.110305 -0.210912 0.238828 -0.034089 0.317386 0.211919 0.187426
( -0.302348 -0.113759 0.194040 0.144987 0.079915 -0.049149 -0.323903 0.139575 0.120657 0.079928 -0.231685 -0.017262 -0.081345 0.101553 0.016088 0.080708 -0.110616 0.001040 -0.024978 0.142598 -0.094359 -0.014044 -0.112056 0.134045 -0.226248 0.045853 -0.442072 0.085350 -0.156612 -0.236902 0.034396 0.229042 -0.161506 0.038688 -0.057227 0.091754 0.006485 0.191931 -0.150397 0.021897 0.048483 0.107691 -0.122211 0.016792 -0.068640 -0.329012 -0.289922 0.119340 -0.000279 -0.045674 -0.010180 -0.205961 0.112345 0.051417 0.132593 -0.146310 0.069966 0.161606 0.014569 -0.049591 -0.054618 0.010280 0.159007 0.119546 0.077359 0.062861 0.092359 0.196796 0.174632 -0.181073 -0.431201 -0.024189 0.223992 0.256216 0.133629 -0.239497 0.127278 0.160416 -0.269946 -0.025833 -0.254441 -0.435637 -0.017080 0.232816 -0.053424 0.079229 0.092371 0.039098 -0.057187 0.065130 0.003291 -0.024140 -0.060694 0.222155 -0.227208 0.097649 0.110475 0.055291 -0.038138 0.069601
P -0.312744 -0.013425 0.242394 -0.011583 -0.130001 0.294833 -0.340033 -0.142310 0.204205 0.053085 0.006102 -0.137259 -0.013759 0.050060 -0.222260 0.137666 -0.015790 0.273434 0.019013 0.241041 -0.092716 0.225596 -0.342557 0.140036 -0.019270 0.353829 -0.459531 0.015186 -0.259968 0.328685 0.005209 -0.190223 0.037775 0.195523 0.008419 0.125772 0.126246 -0.058516 -0.213775 0.050862 0.526664 0.134148 0.362591 -0.143739 0.232951 0.121848 -0.112367 -0.194104 -0.116441 -0.083598 0.183823 0.243064 0.275573 0.122355 0.140111 -0.234424 0.208573 -0.096016 -0.192678 0.165046 -0.219099 -0.119476 -0.241925 -0.109419 0.232668 -0.362112 0.283657 0.081088 0.068627 -0.165638 0.016154 -0.233011 -0.210005 0.224562 0.235957 0.059365 -0.178214 0.697803 0.104863 -0.085388 0.073512 0.060080 0.133379 0.149325 0.047894 0.198748 -0.301583 0.252633 0.366843 0.091434 -0.054467 0.055345 0.124498 0.151935 0.024431 0.118456 -0.236017 0.310693 0.125870 0.105742
G -0.427554 -0.000945 0.118633 -0.083683 -0.265948 -0.038723 -0.444246 -0.455345 0.374257 0.076997 -0.266749 0.103912 -0.155287 0.256131 -0.073461 -0.074958 -0.115122 0.110441 0.051607 0.402282 0.146070 -0.161705 -0.321647 0.157692 -0.022573 0.072996 -0.487109 -0.011063 -0.316550 0.067630 -0.221529 -0.101794 -0.068064 0.254798 0.084643 0.179417 0.104025 0.216263 -0.252106 -0.115453 0.576968 0.069188 0.316710 0.134638 0.089370 0.122915 0.034897 -0.160785 -0.146288 0.163011 0.048488 -0.064442 0.254279 -0.153111 0.328098 -0.153092 0.312573 -0.056705 -0.343408 0.056041 -0.215075 0.035954 -0.032562 -0.158765 0.328665 -0.120459 0.343455 -0.278519 0.068741 -0.314279 0.167425 -0.091347 -0.499235 0.086791 0.361310 -0.055549 -0.070432 0.557561 -0.037361 0.117314 0.157929 0.097499 -0.049457 0.083644 -0.067289 0.183078 0.042139 0.197050 0.136843 0.036001 -0.217522 -0.088819 -0.176999 0.094295 0.212494 0.247456 -0.267020 0.300896 -0.033683 0.191745
" -0.157267 0.190597 0.142099 0.221375 0.038864 -0.252715 -0.123381 0.001116 -0.109217 -0.146987 -0.187723 -0.158754 0.115155 -0.072150 -0.150923 0.164682 -0.000328 -0.241667 -0.280989 -0.117684 -0.134676 0.204240 -0.028893 0.448089 0.174749 -0.286973 -0.297166 0.058240 -0.225925 0.094900 -0.154504 -0.150575 -0.008726 0.168733 0.329945 0.400078 0.103943 -0.206448 0.105476 -0.106199 0.199034 0.173217 -0.009509 0.058374 -0.106978 -0.030195 0.301083 -0.131797 -0.208220 -0.141278 0.212908 0.045858 -0.112310 -0.122374 -0.017532 0.167562 0.122333 -0.125073 0.110133 -0.158295 -0.052654 0.021255 0.280292 0.192912 -0.043978 0.153279 0.116978 -0.044137 0.104045 0.214661 0.115727 0.133201 0.052938 -0.194344 0.067655 -0.025963 -0.012290 -0.121393 0.078298 0.130254 0.116217 0.037413 0.156953 0.177373 0.016198 0.150507 -0.004987 0.204379 -0.055101 -0.029212 0.189243 -0.192067 -0.113629 0.123228 0.131302 -0.051331 -0.055577 -0.008372 -0.100361 0.006782
F -0.111290 0.196368 0.281209 -0.048602 -0.023727 0.235821 -0.279412 -0.080970 0.141838 0.178533 -0.220039 -0.105791 -0.126201 0.203553 -0.177753 0.011208 -0.032669 -0.012775 0.001772 -0.001254 -0.067497 0.008990 -0.047326 0.093309 0.058289 -0.008193 -0.425766 0.045945 -0.135073 -0.147328 -0.006244 -0.248651 -0.033507 0.040922 0.153643 0.261060 0.307751 -0.053918 -0.112683 0.345322 0.397969 0.175633 0.480950 -0.017434 0.235241 0.078631 0.199643 -0.214771 -0.041370 0.242346 0.157939 0.139674 0.340947 -0.159333 0.145111 -0.204779 0.258572 -0.214448 -0.279713 0.162562 -0.301515 -0.114392 -0.093793 -0.030464 0.287314 -0.371734 0.278080 -0.041533 0.098761 -0.154579 0.183023 -0.287883 -0.357726 -0.089442 0.312206 -0.256148 -0.163060 0.554000 0.270236 0.127327 0.401612 0.330327 0.012969 0.016941 0.017390 0.183948 -0.039367 0.291398 0.203964 -0.063526 -0.082015 -0.122016 -0.074090 0.040071 0.269135 0.063672 -0.275167 0.440415 0.047479 0.158527
H -0.141311 -0.192027 -0.170763 -0.075627 -0.053967 -0.127124 -0.269373 -0.317815 0.019410 -0.131137 -0.140595 0.044075 0.068388 0.041339 -0.122406 -0.025621 0.026150 0.264945 0.100935 0.558956 -0.013880 -0.307406 -0.248070 0.045757 -0.001523 0.179395 -0.490310 -0.094538 0.211261 -0.165329 -0.115981 0.036410 -0.061865 -0.241605 -0.128396 0.170470 0.202886 0.185437 -0.195930 0.053647 0.254824 0.079134 0.287172 0.213751 -0.026050 0.019955 0.195642 -0.032899 0.106205 0.263121 0.173314 -0.070520 0.370146 -0.055489 0.150597 -0.257757 0.122515 -0.018052 -0.226202 0.120065 -0.157204 -0.013167 0.152807 -0.117458 0.208599 -0.097290 0.166657 0.057362 0.117913 -0.154271 0.352211 -0.333985 -0.221678 0.284423 0.341324 0.041854 -0.295556 0.517431 0.287913 -0.061708 -0.028365 0.019161 -0.005454 0.016502 0.225442 0.206182 0.045786 0.118842 0.051691 0.096911 -0.128470 -0.043607 -0.124344 0.133856 -0.074417 0.117769 -0.357500 0.347074 0.358751 0.354830
W -0.177083 0.124256 0.176589 -0.108579 0.087811 0.235811 -0.028831 -0.203977 0.179009 -0.001488 0.033658 0.042730 0.117408 0.290449 -0.264087 -0.036052 -0.161535 0.359576 -0.063723 0.253570 0.096079 0.014486 -0.099947 0.062583 -0.077208 0.421711 -0.339368 -0.007795 -0.087094 -0.100573 0.162700 -0.158264 0.098925 -0.213403 0.031646 -0.069246 0.238653 0.283879 -0.299044 0.107991 0.470084 0.287969 0.425821 0.143207 -0.022676 0.228790 0.050824 -0.049512 0.037619 0.192635 0.123134 0.366171 0.564249 -0.056450 -0.072563 -0.339681 0.113197 -0.270248 -0.341943 0.185086 0.054839 -0.113414 -0.429265 -0.376666 0.314861 -0.383744 0.276011 -0.142219 0.008247 -0.348551 0.141700 -0.116851 -0.300581 0.171739 0.504435 -0.154479 -0.119940 0.687589 0.330912 0.048469 0.098792 0.272189 -0.228867 0.127565 0.056074 0.336908 0.047236 0.236197 0.293288 0.060033 -0.107006 0.039833 -0.014287 0.255438 0.166845 0.325977 -0.234966 0.269762 -0.054747 0.348564
' -0.427199 -0.101805 -0.032524 0.185441 -0.036519 -0.146177 -0.185752 -0.112421 0.124455 -0.119804 -0.043480 -0.095095 -0.028817 -0.058037 -0.580203 0.058381 -0.041062 0.099696 0.373500 0.140363 -0.082564 -0.078219 -0.228801 0.180413 0.106952 0.172884 -0.147899 0.038987 -0.149344 -0.110962 -0.036464 -0.194228 0.008609 -0.039570 0.147543 0.102892 -0.023977 -0.010723 -0.385282 0.075295 0.198422 0.267276 0.384850 -0.046092 0.200816 0.164099 0.128984 0.107379 -0.022720 0.143662 0.171592 0.185555 0.131859 -0.089424 0.103399 -0.256244 0.264653 -0.222749 0.123662 -0.026400 -0.200392 0.184882 -0.086382 -0.122459 0.264090 -0.009609 0.278663 0.105126 0.020678 -0.387819 0.016016 -0.110834 -0.214450 -0.032622 0.256661 -0.156376 0.004809 0.410129 0.046580 -0.157421 -0.088356 0.015796 -0.246820 0.047878 -0.121757 0.201483 -0.185549 0.286260 -0.147086 -0.362921 -0.097951 0.009271 -0.081382 0.074917 0.082624 0.015592 -0.207111 0.477501 0.442791 0.039255
U -0.286228 -0.266039 -0.052155 -0.067691 -0.062401 -0.158960 -0.189721 -0.155269 0.270729 -0.187374 -0.218139 -0.105950 -0.284654 -0.040443 -0.189468 -0.048765 -0.039565 0.095653 0.502085 0.480820 0.089547 0.008495 -0.194185 -0.148000 -0.106663 0.139295 -0.158978 0.068670 -0.178264 0.029658 -0.284024 -0.227864 0.072356 -0.005600 0.218253 0.241215 0.036743 0.220388 -0.273666 0.112018 0.609775 0.216905 0.475109 -0.081877 0.193298 0.164771 0.097291 0.062552 -0.063307 0.394326 -0.031466 -0.066002 0.354819 -0.019381 0.226766 -0.320748 0.110547 -0.296888 -0.070053 -0.124985 -0.161730 0.015886 0.061654 -0.088177 0.256491 -0.315082 0.196684 0.014934 -0.077942 -0.384599 0.058052 -0.244258 -0.615160 0.043464 0.170480 0.073712 0.017812 0.499997 -0.042584 0.085515 -0.026712 0.087186 -0.274215 0.074722 -0.096453 0.221601 0.000836 0.285948 -0.183094 -0.067499 -0.206089 0.166975 0.010936 0.186309 0.074316 0.013978 -0.304441 0.483476 0.311227 -0.071228
x -0.048725 -0.209744 0.135574 0.188059 0.074266 -0.056850 -0.265512 -0.050318 0.033628 0.146950 -0.161625 -0.061638 -0.154608 -0.111615 0.052756 0.080099 0.104105 -0.015172 0.009437 0.053900 -0.041620 -0.087964 0.047342 0.129574 0.216032 -0.076156 -0.264034 -0.026125 -0.084851 0.016621 -0.185709 -0.112775 -0.014317 0.199280 0.219470 0.356154 0.160461 -0.112171 0.025993 0.279348 0.150625 -0.119314 0.143820 -0.158594 0.223509 -0.095326 0.219619 -0.145111 0.016023 0.082916 0.111748 -0.218068 -0.027024 -0.112498 0.043836 -0.049707 -0.067421 -0.031245 -0.022371 -0.043981 -0.385902 -0.037718 0.182330 0.106110 0.215765 -0.009551 0.012923 0.109301 0.203742 -0.219742 0.118819 -0.124021 -0.150662 0.082673 0.166047 0.075961 -0.017951 0.322867 -0.026612 0.276344 0.066320 -0.000873 -0.075012 0.098965 0.089523 0.322571 0.078742 0.188721 0.029041 0.137723 0.008800 -0.113731 -0.140273 0.187346 0.216321 0.125382 0.133265 0.195255 -0.029375 0.033282
K -0.030385 0.039570 0.234149 0.083499 0.363549 -0.091311 -0.412235 -0.411717 -0.157546 -0.429439 0.157054 0.343013 0.029503 -0.044532 -0.228921 0.023032 0.069072 0.482444 0.102706 0.407720 -0.035961 0.226408 -0.211800 -0.015717 -0.116725 0.538283 -0.378210 -0.156502 -0.088843 0.016053 0.162178 -0.092788 -0.237666 -0.234398 -0.207962 -0.018484 0.207580 0.460614 -0.194649 0.023270 0.611373 0.247649 0.393127 0.140992 -0.071531 0.302281 -0.057162 -0.044212 -0.079000 0.137243 0.108917 0.468743 0.558935 -0.187552 0.025487 -0.458422 0.224914 -0.302889 -0.227989 0.022714 0.140902 0.223094 -0.234962 -0.340819 -0.003391 -0.532935 0.248388 -0.163608 -0.066211 -0.413951 0.052977 -0.079435 -0.330866 0.060228 0.469162 -0.304643 -0.102257 0.426385 0.202679 -0.113613 -0.009793 -0.140095 -0.401974 0.227895 0.007063 0.220664 0.034957 -0.051645 0.101787 -0.042252 -0.204088 0.121666 0.128488 0.448312 -0.279392 0.233058 -0.411781 0.179613 0.191318 0.143557
J -0.256674 -0.345684 0.224816 0.231521 0.277122 0.030560 -0.063506 -0.462967 0.149259 -0.077197 0.012970 0.216335 0.038743 0.085205 -0.334121 0.130103 -0.111242 0.387187 0.003112 0.362437 -0.191564 -0.185151 -0.081999 0.278382 0.009627 0.083776 -0.388212 -0.131782 -0.013595 -0.100891 -0.038129 0.037438 -0.157082 -0.119833 0.008704 0.004392 0.177077 0.222461 -0.196631 0.004186 0.309947 0.385335 0.190456 0.387400 0.144340 0.169286 0.027488 -0.041991 -0.164804 0.030243 -0.015541 -0.037493 0.191208 -0.123597 -0.075377 -0.139315 0.080284 -0.152241 -0.044957 -0.068391 0.038121 0.145067 0.021832 -0.305189 -0.108612 -0.398780 0.007003 -0.206744 0.193403 -0.157446 -0.027595 -0.124283 -0.274825 -0.069189 0.235330 -0.171979 0.095151 0.509894 -0.027571 -0.031661 -0.146609 0.096333 -0.358255 0.173209 -0.244470 0.138293 -0.051700 -0.076233 -0.013638 -0.132828 -0.073352 -0.195710 0.008096 0.183498 -0.385338 0.210725 -0.083421 0.217988 0.210911 0.175308
j -0.414172 0.187064 0.216163 0.263384 -0.001860 -0.203703 -0.041651 0.055609 0.170069 0.115112 0.056036 -0.054843 -0.124846 -0.054706 -0.087831 0.078414 -0.017664 -0.156440 0.076562 -0.038354 0.079979 0.054223 -0.058887 0.171282 0.065201 0.156010 -0.260758 -0.075351 -0.074682 0.087711 0.056317 -0.104368 0.100032 -0.163119 0.187520 0.167129 0.005551 -0.050870 0.176038 0.093326 0.278423 0.020895 0.048714 -0.033622 0.023833 -0.115310 0.022222 0.071598 -0.060409 -0.052085 0.172618 -0.165345 -0.036874 0.111321 -0.044634 0.006800 0.070007 0.030465 0.132946 -0.149903 -0.148701 -0.003349 0.115972 -0.044136 0.067545 -0.020285 0.082870 0.053124 0.269189 -0.016569 0.054039 -0.075691 0.063891 -0.028477 0.218980 0.050296 -0.015518 0.115684 0.055784 0.100871 -0.057356 0.044571 0.000972 0.013948 0.132163 -0.088059 -0.066577 0.261597 -0.194236 0.041095 0.174577 -0.032866 -0.063504 0.112608 -0.113650 0.034417 0.096701 0.363970 0.077450 -0.046011
: -0.354444 -0.336508 0.115719 0.468865 0.254798 0.182239 -0.171368 0.250106 0.201010 -0.031517 -0.266641 -0.260329 0.003699 -0.269648 -0.009590 0.043924 -0.020782 0.105088 0.122512 0.179649 0.082295 0.243446 -0.032862 0.071777 0.066064 0.199488 -0.182071 -0.018988 -0.202404 0.368435 -0.153846 -0.082454 -0.010065 -0.112982 0.069811 -0.052828 -0.177032 -0.045821 0.239515 -0.030863 0.151574 0.139524 -0.006601 0.092053 -0.105314 0.037532 -0.149728 -0.152200 -0.217002 -0.158613 0.095336 -0.221799 -0.073176 0.108622 0.066764 -0.048824 -0.156821 0.154521 0.178513 -0.256740 -0.048108 0.310890 0.164974 -0.291313 0.222019 0.079466 0.071330 -0.099555 0.326997 0.021260 -0.141123 0.046809 0.002998 0.141077 0.270668 -0.204909 0.434218 0.399140 -0.273970 0.348857 -0.125767 -0.329697 0.124367 0.198711 0.100492 -0.091598 0.144139 -0.038457 -0.044203 -0.154516 0.054173 -0.151285 -0.106285 0.482519 -0.345876 0.328024 0.110892 0.063633 -0.225622 -0.041558
z -0.307300 -0.196956 -0.212434 -0.000911 0.087815 -0.103027 -0.270029 -0.216038 -0.080568 0.013534 -0.071776 -0.004552 -0.085437 -0.140998 -0.081160 0.120018 0.001068 0.002364 0.332748 0.182872 0.226667 -0.131816 0.236442 0.135736 0.017269 0.223662 -0.200483 -0.112575 -0.133135 0.173193 -0.208298 -0.184279 0.039031 -0.031030 0.046366 -0.099850 0.001787 0.303687 -0.141009 -0.071676 0.232970 0.126948 0.202232 0.167015 -0.235805 0.075584 0.130601 0.147945 -0.088263 -0.158255 0.478770 -0.044405 0.167531 -0.049827 0.173856 0.015628 -0.012788 -0.233318 0.152020 -0.006104 0.089111 0.151869 0.172309 -0.336962 0.239116 0.199577 -0.058631 0.167223 0.185173 -0.239143 0.020820 -0.040408 -0.148944 -0.078972 0.176472 0.060467 -0.014238 0.116547 -0.007528 0.008487 -0.259644 0.054716 -0.314218 0.168680 0.040291 -0.003170 0.236423 0.152670 -0.367589 -0.215304 0.212242 -0.053181 -0.361517 0.342371 -0.027050 -0.058269 -0.139156 -0.161801 0.042425 -0.185441
Y 0.124648 0.092895 0.203944 -0.161460 0.263725 -0.031131 -0.075891 -0.162260 0.183956 -0.008222 -0.015970 0.049142 0.053456 0.266732 -0.152479 -0.041524 -0.147159 -0.012783 0.259343 -0.112742 0.016058 0.258027 -0.081617 0.047890 -0.018239 0.384931 -0.149998 0.071489 0.066703 0.143187 0.095624 -0.350039 0.089845 -0.136789 -0.166904 0.288225 0.292472 -0.000310 -0.053912 0.261115 0.260512 0.129272 0.439834 0.033190 -0.033205 0.053026 -0.026217 0.022902 -0.105938 0.210805 0.157327 0.078642 0.412742 -0.080592 0.023512 -0.433208 0.329039 -0.232774 -0.260907 0.082513 -0.103171 0.097657 -0.098386 -0.268305 -0.059108 -0.373537 0.075636 -0.052444 0.026786 -0.440653 0.056987 -0.310925 -0.229799 -0.128788 0.362828 -0.453785 0.012297 0.563869 0.028746 0.039545 0.060231 0.126132 -0.045896 0.090647 -0.037810 0.164550 -0.197753 0.164053 0.001414 -0.205652 -0.166359 -0.025016 0.144290 0.167384 -0.175597 0.256976 -0.451414 0.597356 0.257618 0.086023
q 0.023661 -0.218678 0.246866 0.050101 0.275273 0.154932 -0.086967 -0.062923 -0.471142 -0.476230 -0.042336 0.165475 0.181396 0.006496 -0.233531 0.176861 -0.182439 0.291941 -0.041090 0.139407 -0.143765 0.093320 -0.092600 0.199952 0.260618 -0.015609 -0.411457 -0.219654 -0.112919 0.029113 0.123714 0.349337 0.068796 -0.264670 -0.284867 -0.049935 0.036617 0.117908 0.007441 -0.121905 0.159170 0.244465 -0.076927 0.086781 -0.253841 0.047460 0.412653 -0.046266 -0.028228 -0.207052 0.225795 -0.048943 0.380999 -0.047849 0.094855 -0.052208 0.184376 -0.016382 0.045033 -0.197689 -0.160518 0.173462 0.243082 -0.031408 -0.281546 0.066559 -0.002700 -0.170608 0.119143 0.006686 0.263899 -0.022671 -0.237155 0.003169 -0.017546 0.015482 -0.071116 0.139460 0.115500 0.238378 -0.104922 0.026348 -0.057679 0.210883 0.123454 -0.172023 0.433795 0.067370 -0.089745 -0.106373 0.044105 -0.289285 -0.191949 0.162765 -0.095786 0.111393 0.178842 -0.057492 -0.370598 0.120949
V -0.306164 -0.111690 -0.289435 -0.032755 -0.219387 0.048820 -0.281328 0.018157 0.194029 0.056868 -0.069466 -0.212445 -0.003271 0.208810 -0.056721 0.124686 0.149598 0.149307 0.166977 0.418029 -0.221863 -0.007695 -0.251358 0.216161 -0.243409 0.195035 -0.301006 0.069124 -0.061356 -0.266753 -0.143526 -0.221449 -0.040982 -0.016398 0.067053 0.112465 0.226878 -0.092103 -0.374082 0.261256 0.277978 0.263271 0.284430 0.176600 0.343018 0.110219 0.302512 0.061352 -0.056357 0.309713 0.228834 0.056169 0.298864 -0.190224 0.140996 -0.196159 0.338069 -0.268897 -0.088650 0.071766 -0.209416 0.048302 -0.126797 -0.105806 0.366067 -0.383451 0.081003 -0.159850 0.188512 -0.351673 0.134306 -0.234459 -0.488058 0.236312 0.361385 0.003539 -0.248128 0.658819 0.378466 -0.084296 0.152412 0.141946 0.086268 0.258127 0.118753 0.278575 -0.152301 0.394063 0.093885 -0.459567 -0.144239 -0.110592 0.124449 0.188518 0.313265 -0.037955 -0.277515 0.511173 0.334669 0.148473
/ 0.194481 -0.287169 -0.251666 -0.472698 0.041924 0.055214 -0.652947 -0.011364 0.043861 -0.643640 -0.063662 0.167785 -0.158152 -0.273282 0.024157 -0.177324 0.098748 0.277630 0.605650 0.796313 0.242426 0.069464 -0.359864 -0.300980 -0.023132 0.236550 -0.493052 -0.440892 0.326335 -0.164386 -0.285316 -0.308759 -0.254570 -0.561497 0.040784 0.222955 0.103320 0.474456 -0.380021 0.170421 0.555284 0.316081 0.607720 0.063348 0.051882 0.037392 0.248614 0.251102 0.055250 0.435570 0.143552 0.057839 0.722754 0.039224 0.093823 -0.351677 0.128205 -0.215703 -0.121119 -0.157459 -0.163022 0.356906 0.104144 -0.247974 0.106971 -0.420274 -0.014331 -0.107655 0.037377 -0.181049 0.141488 -0.556506 -0.722644 0.263152 0.590133 -0.179348 -0.115425 0.730908 0.066486 -0.125213 0.068213 -0.067669 -0.083262 0.083698 0.312420 -0.176556 0.332919 0.174512 0.017879 0.017602 -0.091248 0.010752 -0.107860 0.462638 0.225589 -0.026374 -0.375072 0.172251 0.107501 0.327548
$ 0.083088 0.078324 -0.168115 -0.005961 -0.283290 0.096307 -0.441060 -0.000850 0.278529 -0.388803 -0.078909 -0.201110 -0.128052 0.220462 -0.087994 0.313210 0.217706 -0.052389 -0.035376 -0.043257 0.029459 0.239713 -0.047975 -0.167429 0.118446 0.129560 -0.185613 -0.268916 -0.054767 0.225580 -0.169815 -0.117041 0.037645 0.145879 -0.049781 0.086663 -0.087069 0.028109 -0.028989 -0.022692 0.212710 0.000132 0.291329 -0.191641 0.120952 0.079165 0.136971 0.104535 -0.082671 0.014518 -0.242653 0.038105 -0.273438 -0.080387 0.006595 0.145748 0.023170 -0.125072 -0.345521 -0.221902 -0.230924 0.242253 -0.365875 0.009673 0.084404 -0.028022 0.339563 -0.261362 0.043497 0.127269 -0.266902 0.088378 -0.275617 0.187260 0.260988 -0.240514 0.323198 0.000773 0.034162 0.118811 0.009136 -0.072524 -0.062084 0.091852 -0.050827 -0.135393 -0.116221 0.287880 0.049758 0.025082 -0.075411 0.136087 0.073898 0.338293 0.249982 0.037536 -0.041124 0.051671 -0.360422 -0.232191
Z -0.253280 0.040191 -0.053557 0.042989 -0.048333 0.122709 0.002995 -0.029889 -0.037415 0.117116 -0.001013 0.060086 -0.310479 -0.345793 -0.121242 0.105805 -0.046365 -0.108457 -0.132317 -0.137493 0.132259 -0.068541 -0.180201 -0.085454 0.129586 0.057081 -0.403395 -0.168314 -0.217422 0.017794 0.028706 0.194041 -0.258391 -0.148730 0.041897 -0.131656 0.014318 0.128691 -0.283303 -0.024057 0.265218 0.296550 0.309214 0.077595 0.325484 -0.002164 0.025002 0.115388 -0.021943 -0.035732 0.094310 0.042096 -0.032668 0.202894 -0.096496 0.004862 0.021405 -0.040850 0.071537 0.148214 -0.175925 0.080883 -0.090336 -0.350643 0.380582 0.162938 0.319919 -0.048242 0.230288 -0.047385 -0.052932 0.038250 0.213870 -0.063720 0.304483 -0.164718 0.139041 0.465239 0.103592 -0.050504 -0.117820 0.129569 -0.148835 0.033218 -0.165337 -0.077236 -0.040523 -0.000132 -0.023037 -0.134925 0.016720 0.074129 -0.151293 0.260415 0.076751 0.225731 0.081189 0.027637 -0.075398 -0.107063
+ -0.085875 0.078469 -0.053508 -0.817393 -0.226916 -0.375215 -0.172459 -0.374214 0.444208 -0.467215 -0.516562 0.467425 -0.710472 0.319708 -0.006698 0.044571 -0.047502 -0.218287 0.172262 -0.178429 -0.101677 -0.289634 0.201357 -0.443486 0.353566 0.231893 -0.170716 -0.142700 0.544012 -0.120223 0.023319 -0.284406 0.194712 -0.430069 0.109886 0.150644 -0.095852 0.435365 0.115667 0.334972 0.302042 0.008219 0.398374 -0.319815 0.281457 -0.406248 0.045897 0.413575 0.170462 0.245222 -0.397495 -0.157902 -0.191573 0.056654 -0.330269 0.051501 -0.174477 -0.087357 -0.226307 -0.436614 -0.156942 0.085863 -0.250332 -0.022949 0.080995 -0.372723 0.097306 -0.139081 0.042516 -0.319721 -0.202575 -0.274039 -0.384403 0.042793 0.631418 -0.331947 0.010347 0.173251 0.108023 0.129192 0.028704 -0.305473 -0.469048 0.088660 -0.098984 -0.216261 0.254766 0.140297 -0.614979 0.168808 0.218303 0.003555 -0.082486 0.201035 0.516639 0.159628 0.001599 0.213165 -0.012844 0.051556
X -0.039065 -0.183626 0.062832 -0.360374 0.214876 -0.025158 -0.338024 -0.059434 -0.053370 0.293290 0.132393 0.292312 -0.242764 -0.033568 0.149577 -0.119153 0.093297 -0.183503 0.366646 0.159115 0.100378 -0.016472 0.041229 -0.123423 0.028421 0.295870 -0.199528 -0.050598 -0.087188 0.048992 -0.098390 -0.029968 -0.009257 -0.136010 -0.117519 0.073334 0.283986 0.144815 -0.180909 0.303857 0.543902 0.038156 0.587498 -0.006790 0.209424 0.215428 0.047402 0.011871 0.110931 0.186740 0.308895 -0.231234 0.247895 -0.112870 0.022304 -0.325513 0.082397 -0.224818 -0.093501 -0.063551 -0.172930 -0.031504 0.166395 -0.298266 0.409281 -0.155505 -0.000605 0.116469 0.113596 -0.507657 0.480455 -0.282733 -0.239766 0.135051 0.310737 0.192172 -0.114288 0.337851 0.330514 0.190513 -0.048909 0.142781 -0.405881 -0.148506 0.287863 0.232521 -0.065595 0.184245 0.081620 -0.173744 -0.227582 0.181922 0.007928 0.402075 -0.307044 -0.098816 -0.192560 0.322253 0.306709 -0.010984
Q -0.168320 -0.322485 -0.050732 -0.208324 -0.326447 0.012701 -0.322786 0.009197 -0.146431 -0.112363 -0.336708 0.115708 -0.127622 0.108099 -0.238321 0.491727 -0.155241 0.076438 0.452888 0.145320 -0.101755 -0.033053 0.006824 0.234434 0.157716 0.011385 -0.332501 0.275283 0.178442 -0.175688 -0.241743 -0.410269 0.307525 0.408896 -0.382546 0.209641 0.004772 -0.055448 -0.145984 0.476812 0.216277 0.054220 0.536704 -0.386933 0.309342 -0.004944 -0.068034 -0.171924 -0.078654 0.150387 0.317560 -0.116504 0.239922 -0.063946 0.153592 -0.311726 0.457459 -0.174548 -0.149101 0.013704 -0.313304 -0.063007 -0.261390 -0.226620 0.364963 -0.088005 0.095743 0.139571 0.040168 -0.785179 0.189219 -0.427641 -0.303025 0.222418 0.195852 0.244879 -0.378332 0.621902 0.117928 -0.114201 -0.005764 0.140666 -0.207000 -0.047223 0.283362 0.112522 -0.114689 0.224792 0.024576 -0.337762 -0.037622 -0.317923 -0.025749 0.052857 0.123704 -0.085659 -0.053869 0.286591 0.212890 0.218574
; -0.034438 -0.108056 -0.173879 0.087178 0.257336 -0.237105 -0.206783 -0.292395 0.384867 -0.227504 -0.059892 0.177279 -0.060560 0.026233 -0.372222 0.043581 -0.282578 0.460310 0.147457 0.372782 0.329641 -0.017879 -0.020237 0.104707 0.109797 0.434048 -0.431444 -0.467796 0.051651 0.294213 -0.015813 -0.388012 -0.038072 -0.481556 -0.092467 -0.089692 0.056170 0.702871 -0.265692 -0.064753 0.171724 0.194009 0.222955 0.325588 -0.221043 -0.046678 -0.336783 0.353846 0.067829 0.319785 0.160149 -0.013097 0.633083 0.056406 0.020431 -0.330970 0.285643 0.124923 -0.058568 -0.059470 0.064743 0.413438 -0.110997 -0.491563 0.020794 -0.381081 -0.062429 -0.043904 0.183566 -0.370364 -0.103099 -0.180836 -0.168272 -0.002575 0.401075 -0.454608 0.015794 0.394688 -0.209151 -0.035889 -0.048493 -0.089672 -0.375425 0.237838 0.015317 0.104790 0.317973 -0.282473 -0.017310 0.322165 -0.087176 -0.139152 0.034047 0.228872 -0.635395 0.455889 0.016634 0.343340 -0.190192 0.269713
* -0.127552 -0.214579 0.125899 -0.173168 -0.133103 -0.250180 -0.258473 -0.004573 0.443250 -0.081035 -0.372965 0.083509 -0.470568 -0.299350 -0.071387 0.267618 0.020754 0.035807 0.214433 -0.143651 -0.253038 0.038315 0.190334 -0.237498 0.211280 0.340569 -0.051145 0.033435 0.179416 0.224653 0.000474 -0.368172 0.245944 -0.441529 -0.246401 -0.343669 -0.234316 0.371556 0.122857 0.122548 0.178338 0.124581 0.180883 -0.156259 0.208792 -0.345595 -0.225047 0.184402 -0.145657 0.111301 -0.109109 -0.155972 -0.067403 -0.021363 -0.129530 -0.164001 0.245900 -0.161888 -0.110606 -0.275396 -0.080108 0.152912 -0.368105 -0.221105 0.408313 -0.259290 0.102881 0.075156 -0.134088 -0.253149 -0.030212 -0.147555 -0.232809 -0.076202 0.379435 -0.312875 0.190700 -0.078265 0.179729 -0.032505 -0.001833 -0.281694 -0.281002 -0.079401 -0.048083 -0.173061 0.230855 -0.039055 -0.186534 0.071272 0.008203 0.238594 -0.013909 0.255454 -0.081498 -0.124855 -0.134995 0.122788 -0.325662 0.065204
& -0.198776 -0.136635 -0.032503 -0.146191 0.117578 -0.523778 -0.284790 0.252398 0.241611 0.016033 -0.193987 -0.070713 -0.253773 -0.047019 -0.186021 0.333753 0.225427 -0.143724 0.185769 0.303807 0.083927 0.013269 -0.088306 -0.156771 0.019434 0.164591 -0.040096 -0.004731 0.121139 -0.061713 -0.382650 -0.325761 0.121427 0.059148 -0.160355 0.137818 0.119309 0.119330 -0.281177 0.237176 0.239403 0.105198 0.286123 0.082875 0.144939 -0.026202 0.066055 0.065759 -0.188435 0.209620 0.016522 -0.243354 0.043372 -0.073674 0.082668 -0.137836 0.373465 -0.160848 0.062990 -0.028645 -0.074910 0.406336 -0.074900 -0.241870 0.263638 -0.232044 -0.047798 0.112583 0.167838 -0.260209 -0.013006 -0.123580 -0.485695 -0.064014 0.292112 0.112646 0.251563 0.139109 0.032345 -0.256281 -0.098244 0.260196 -0.480170 -0.360185 0.154736 0.146503 -0.151190 0.200353 -0.185878 0.133403 -0.123698 0.262929 0.293672 0.503586 -0.630019 -0.042959 0.092932 0.752899 0.155270 0.326090
= -0.283182 -0.090775 0.392624 -0.374525 0.016261 -0.105919 -0.005629 -0.006655 0.278435 -0.115783 -0.401195 -0.090082 -0.365252 0.183896 -0.457485 0.218728 0.163710 -0.028194 -0.174981 0.081412 0.494451 0.023601 0.142527 -0.267622 0.003945 0.364521 -0.119465 -0.297176 0.121100 0.478903 -0.118667 -0.239123 0.253223 -0.200986 -0.318618 0.139841 0.351600 0.199967 -0.149823 0.227372 -0.037971 -0.053404 0.465039 0.108348 -0.212237 -0.280888 -0.014808 0.565478 0.146977 0.330946 -0.001493 -0.198650 0.066334 -0.065619 0.010100 -0.201439 0.347772 -0.178297 -0.205034 -0.165194 -0.140164 0.008868 -0.297040 -0.394993 0.254259 0.127568 -0.038121 -0.007646 -0.047873 -0.026273 -0.049110 -0.058892 -0.140195 0.384408 0.280781 -0.160513 0.149752 0.125550 -0.308038 -0.106349 -0.397223 -0.031179 -0.300795 -0.091282 0.165035 0.047971 0.069861 0.225456 -0.283031 0.326578 -0.150347 -0.017549 -0.142915 0.543314 -0.413841 0.215510 0.050741 0.373168 -0.374502 -0.199554
% 0.229569 -0.480690 -0.098667 0.245742 -0.357592 -0.233563 -0.026060 0.227087 0.537009 -0.085678 -0.897001 -0.123716 -0.388995 -0.065889 -0.178888 0.560364 0.339988 -0.104939 0.248355 0.117010 0.141310 0.423482 0.309902 -0.533128 0.312756 0.479945 0.341554 0.030105 0.387369 0.453952 -0.279913 -0.119209 0.313905 -0.165605 -0.261903 -0.213141 -0.305992 0.204476 0.129502 0.322813 0.300887 0.173132 0.343028 -0.255543 0.105511 -0.088416 0.014527 0.087660 -0.132131 0.145825 0.081594 0.065778 0.034586 -0.243695 0.152372 0.231937 0.170090 -0.112135 0.160425 -0.108859 0.067721 0.481169 -0.366137 0.220050 0.286697 -0.262801 -0.066637 0.205136 0.021238 -0.117375 0.015064 -0.482966 -0.882787 -0.571819 0.299550 -0.333464 0.313939 -0.087953 -0.119261 0.162751 0.289595 0.011817 -0.319654 -0.254265 -0.045032 -0.266627 -0.014045 0.310026 -0.357219 -0.048626 0.002615 0.199321 0.225473 0.569387 0.019059 -0.136292 -0.237476 0.453578 -0.347644 -0.004171
? -0.209088 0.158458 0.167840 0.173793 -0.164606 -0.314148 -0.275439 0.021967 -0.224737 -0.314297 -0.034630 0.209509 0.151274 0.042310 -0.144964 0.105495 -0.134983 -0.204640 -0.054018 -0.008131 -0.044150 0.059425 0.265676 0.147496 0.120693 0.004035 -0.223733 -0.256953 -0.177933 0.006141 -0.126034 -0.275745 -0.009307 -0.003699 0.082114 0.012329 0.085474 0.063499 -0.016592 0.009543 -0.012658 0.148511 0.335981 0.176269 -0.095200 0.099962 0.051807 -0.151532 -0.165822 -0.118290 0.185184 -0.067240 0.020920 -0.008254 0.137389 -0.040132 0.277282 -0.065499 0.113207 -0.128229 -0.117787 0.030401 0.073059 -0.217719 0.136172 -0.020905 0.115883 -0.174129 0.191099 -0.099451 0.099706 0.016797 -0.125781 -0.035251 -0.031958 0.057923 0.204467 -0.041166 -0.473737 -0.026212 -0.073634 0.157547 -0.222623 0.111914 0.128395 -0.174385 0.222484 0.284108 -0.115830 -0.087273 0.087889 -0.155807 -0.180128 0.282417 -0.133717 0.017490 0.170671 0.346509 -0.313694 -0.181294
[ 0.119748 -0.115449 -0.189417 0.248178 -0.045769 -0.214963 -0.094952 -0.001247 0.192331 0.349804 -0.107472 0.032455 -0.127983 0.126742 -0.163836 0.015797 0.177661 0.081774 -0.114291 0.290567 -0.012700 -0.039066 0.060735 -0.059374 0.019375 0.187462 -0.033862 -0.038262 0.189542 0.018277 -0.009791 -0.346196 -0.004884 -0.019238 -0.037245 0.085606 0.218272 0.107273 -0.255231 0.376349 0.105477 -0.003496 0.311821 -0.014727 0.209357 -0.159799 -0.188355 0.219556 0.260193 0.209683 0.085975 0.062576 0.286813 -0.213464 -0.068005 -0.208336 0.317840 -0.072005 -0.022247 0.064932 -0.126826 0.012812 -0.186105 -0.105929 0.231967 -0.220643 -0.058466 0.357114 0.200336 -0.304072 0.039509 -0.355408 0.018389 -0.164806 0.240575 0.100813 -0.011948 0.279839 0.119782 -0.058735 -0.069393 0.196137 -0.441920 -0.395485 -0.055632 0.218758 -0.156773 0.029879 0.177691 0.353454 -0.068801 0.044479 0.132919 0.131650 -0.378252 0.024591 0.006917 0.149847 0.060673 0.279808
] -0.092450 -0.148489 -0.088146 0.217884 0.024787 -0.257149 -0.067308 0.038045 0.409437 0.456202 -0.307753 -0.065645 -0.288712 -0.131209 -0.183212 0.120718 0.162471 0.000591 -0.024121 0.171292 0.039736 0.024866 0.131121 -0.133473 0.073522 0.271426 -0.112093 0.013117 0.216396 0.118107 -0.049371 -0.357754 0.153943 -0.184215 -0.099626 0.045475 0.158148 0.116282 -0.165763 0.372114 0.194813 0.081147 0.320457 -0.066334 0.137515 -0.252155 -0.244790 0.262238 0.140579 0.140687 0.111271 -0.062712 0.184867 -0.130996 -0.148773 -0.157726 0.405862 -0.085353 -0.019611 -0.110551 -0.096869 0.100124 -0.162106 -0.166081 0.199975 -0.207102 -0.104893 0.470187 0.208571 -0.169125 0.049556 -0.444868 -0.078791 -0.261548 0.294580 0.037894 0.063414 0.238969 0.077509 -0.075849 -0.120753 0.187282 -0.479627 -0.430524 0.042114 0.049933 -0.120378 0.155288 0.055313 0.457761 0.154769 0.056222 0.000390 0.327865 -0.536637 -0.079231 -0.023893 0.223719 -0.139192 0.293201
@ -0.029814 -0.209009 0.042294 0.024774 -0.014803 -0.343484 -0.201695 0.062855 0.093602 -0.172513 -0.202633 0.137839 -0.251804 0.084318 -0.042991 0.158994 0.187217 -0.182697 -0.112179 -0.064653 0.091290 -0.044494 0.151870 -0.135519 0.037513 0.097144 -0.067849 -0.090388 0.147167 0.007893 -0.086349 -0.031799 0.066802 -0.120295 -0.178577 0.085771 0.144165 0.160971 -0.037375 0.215125 0.037326 0.013245 0.177611 0.024707 -0.009788 -0.132027 0.005911 0.147094 0.118571 0.120526 -0.017669 -0.105197 -0.024118 -0.156002 -0.029449 -0.011233 0.049733 -0.028403 -0.041049 -0.143595 -0.040443 0.145502 -0.019799 0.021812 0.191510 0.006386 -0.032532 0.107518 0.071269 -0.163041 -0.067239 -0.145422 -0.123662 0.074855 0.242397 -0.145646 0.045738 0.017365 -0.076824 0.054748 -0.110274 -0.153961 -0.267632 -0.033960 0.096458 0.014378 0.114095 -0.015562 -0.167080 0.240361 0.099493 0.016137 0.045311 0.380147 -0.214935 0.093875 0.185569 0.224245 -0.285858 0.094847
! -0.236618 0.030106 0.130613 -0.105591 0.018429 -0.158772 -0.066462 0.023434 0.011080 0.131975 -0.080678 0.190734 -0.059766 0.080051 -0.081403 -0.037124 -0.122319 0.060059 -0.047413 0.286143 0.114598 -0.173194 -0.125643 0.061480 0.060519 -0.011905 -0.223393 -0.111911 0.020984 0.096976 -0.094948 -0.312980 0.031249 -0.078402 -0.022155 0.052183 0.155791 0.058634 -0.048400 0.273069 0.300518 0.111811 0.287664 0.155581 0.063878 -0.269617 -0.028023 0.051101 -0.070434 0.078299 0.192783 -0.075839 0.113152 -0.025927 -0.049938 -0.181618 0.155715 -0.059060 0.207672 0.009800 -0.011280 -0.020926 -0.199968 -0.046057 0.160255 -0.060144 0.034328 0.211874 0.240327 -0.234428 0.065012 -0.259357 0.039965 -0.065235 0.259912 0.187001 -0.000766 0.262224 0.060262 0.030980 -0.116049 0.182624 -0.243813 -0.217871 0.040294 0.173334 -0.083977 0.047845 -0.002596 0.179418 0.121961 0.052425 0.018150 0.296462 -0.218869 0.017095 0.042112 0.166898 0.209862 0.208816
` -0.061914 -0.122372 -0.146718 0.258156 -0.028209 -0.158191 0.173446 -0.078075 0.188723 0.283165 -0.391777 0.119162 -0.158375 -0.319883 -0.238817 0.028076 -0.047403 -0.046273 0.130002 0.133932 0.011311 0.114518 0.245941 0.044493 0.163199 0.111431 0.041722 0.066829 0.291959 0.068823 -0.117563 -0.332092 0.144732 -0.051786 0.074618 0.176511 -0.014870 -0.016580 -0.051367 0.267998 -0.097130 0.040780 0.128770 -0.099770 0.211088 -0.290358 -0.157159 0.198965 0.105093 0.155096 0.185073 -0.068175 0.010824 -0.044865 -0.264799 0.036267 0.169460 0.047728 0.254763 -0.095328 -0.027639 0.002656 -0.189517 -0.053015 0.183493 -0.148937 -0.307771 0.591050 0.068151 0.079226 -0.010917 -0.381259 -0.043179 -0.306646 0.012716 0.008550 -0.122273 0.049924 -0.107362 -0.133039 0.031923 0.203640 -0.272639 -0.472898 0.070355 0.061554 -0.095675 0.135351 0.061594 0.322647 0.040252 0.069482 0.055300 0.017593 -0.388055 -0.161704 0.078257 0.184680 -0.105844 0.148497
# -0.094182 0.059225 0.087113 0.007306 -0.016805 0.020236 -0.160686 -0.118027 0.000358 -0.035589 0.000922 0.067513 -0.045310 0.042098 -0.086742 0.004568 -0.023719 0.000342 0.055560 0.063413 0.078576 0.023008 -0.050577 0.002575 0.041893 0.081231 -0.155532 -0.064804 -0.015248 0.034346 0.002251 -0.031078 0.033624 -0.099865 -0.026852 0.106819 0.060116 0.042794 -0.002360 0.035522 0.176886 0.077028 0.198528 0.044358 0.014141 0.022793 0.116073 -0.008423 -0.028500 0.040354 0.086355 -0.024503 0.057355 -0.034036 0.001080 -0.117516 0.096698 -0.086021 0.003887 -0.030375 -0.073287 0.023332 -0.050761 -0.073847 0.130772 -0.044254 0.139520 -0.015662 0.005104 -0.159722 0.037513 -0.082389 -0.058373 -0.009094 0.155336 -0.044294 -0.018914 0.182204 0.060433 0.041740 -0.076514 0.061207 -0.095435 -0.001636 -0.002227 0.091993 -0.020380 0.115390 -0.067672 -0.074159 0.019670 0.074895 -0.012525 0.170898 -0.023926 0.020016 -0.116607 0.140888 0.063894 -0.049319
